tree
version=v4
num_class=4
num_tree_per_iteration=4
label_index=0
max_feature_idx=767
objective=multiclass num_class:4
feature_names=H_0 H_1 H_2 H_3 H_4 H_5 H_6 H_7 H_8 H_9 H_10 H_11 H_12 H_13 H_14 H_15 H_16 H_17 H_18 H_19 H_20 H_21 H_22 H_23 H_24 H_25 H_26 H_27 H_28 H_29 H_30 H_31 H_32 H_33 H_34 H_35 H_36 H_37 H_38 H_39 H_40 H_41 H_42 H_43 H_44 H_45 H_46 H_47 H_48 H_49 H_50 H_51 H_52 H_53 H_54 H_55 H_56 H_57 H_58 H_59 H_60 H_61 H_62 H_63 H_64 H_65 H_66 H_67 H_68 H_69 H_70 H_71 H_72 H_73 H_74 H_75 H_76 H_77 H_78 H_79 H_80 H_81 H_82 H_83 H_84 H_85 H_86 H_87 H_88 H_89 H_90 H_91 H_92 H_93 H_94 H_95 H_96 H_97 H_98 H_99 H_100 H_101 H_102 H_103 H_104 H_105 H_106 H_107 H_108 H_109 H_110 H_111 H_112 H_113 H_114 H_115 H_116 H_117 H_118 H_119 H_120 H_121 H_122 H_123 H_124 H_125 H_126 H_127 H_128 H_129 H_130 H_131 H_132 H_133 H_134 H_135 H_136 H_137 H_138 H_139 H_140 H_141 H_142 H_143 H_144 H_145 H_146 H_147 H_148 H_149 H_150 H_151 H_152 H_153 H_154 H_155 H_156 H_157 H_158 H_159 H_160 H_161 H_162 H_163 H_164 H_165 H_166 H_167 H_168 H_169 H_170 H_171 H_172 H_173 H_174 H_175 H_176 H_177 H_178 H_179 H_180 H_181 H_182 H_183 H_184 H_185 H_186 H_187 H_188 H_189 H_190 H_191 H_192 H_193 H_194 H_195 H_196 H_197 H_198 H_199 H_200 H_201 H_202 H_203 H_204 H_205 H_206 H_207 H_208 H_209 H_210 H_211 H_212 H_213 H_214 H_215 H_216 H_217 H_218 H_219 H_220 H_221 H_222 H_223 H_224 H_225 H_226 H_227 H_228 H_229 H_230 H_231 H_232 H_233 H_234 H_235 H_236 H_237 H_238 H_239 H_240 H_241 H_242 H_243 H_244 H_245 H_246 H_247 H_248 H_249 H_250 H_251 H_252 H_253 H_254 H_255 S_0 S_1 S_2 S_3 S_4 S_5 S_6 S_7 S_8 S_9 S_10 S_11 S_12 S_13 S_14 S_15 S_16 S_17 S_18 S_19 S_20 S_21 S_22 S_23 S_24 S_25 S_26 S_27 S_28 S_29 S_30 S_31 S_32 S_33 S_34 S_35 S_36 S_37 S_38 S_39 S_40 S_41 S_42 S_43 S_44 S_45 S_46 S_47 S_48 S_49 S_50 S_51 S_52 S_53 S_54 S_55 S_56 S_57 S_58 S_59 S_60 S_61 S_62 S_63 S_64 S_65 S_66 S_67 S_68 S_69 S_70 S_71 S_72 S_73 S_74 S_75 S_76 S_77 S_78 S_79 S_80 S_81 S_82 S_83 S_84 S_85 S_86 S_87 S_88 S_89 S_90 S_91 S_92 S_93 S_94 S_95 S_96 S_97 S_98 S_99 S_100 S_101 S_102 S_103 S_104 S_105 S_106 S_107 S_108 S_109 S_110 S_111 S_112 S_113 S_114 S_115 S_116 S_117 S_118 S_119 S_120 S_121 S_122 S_123 S_124 S_125 S_126 S_127 S_128 S_129 S_130 S_131 S_132 S_133 S_134 S_135 S_136 S_137 S_138 S_139 S_140 S_141 S_142 S_143 S_144 S_145 S_146 S_147 S_148 S_149 S_150 S_151 S_152 S_153 S_154 S_155 S_156 S_157 S_158 S_159 S_160 S_161 S_162 S_163 S_164 S_165 S_166 S_167 S_168 S_169 S_170 S_171 S_172 S_173 S_174 S_175 S_176 S_177 S_178 S_179 S_180 S_181 S_182 S_183 S_184 S_185 S_186 S_187 S_188 S_189 S_190 S_191 S_192 S_193 S_194 S_195 S_196 S_197 S_198 S_199 S_200 S_201 S_202 S_203 S_204 S_205 S_206 S_207 S_208 S_209 S_210 S_211 S_212 S_213 S_214 S_215 S_216 S_217 S_218 S_219 S_220 S_221 S_222 S_223 S_224 S_225 S_226 S_227 S_228 S_229 S_230 S_231 S_232 S_233 S_234 S_235 S_236 S_237 S_238 S_239 S_240 S_241 S_242 S_243 S_244 S_245 S_246 S_247 S_248 S_249 S_250 S_251 S_252 S_253 S_254 S_255 V_0 V_1 V_2 V_3 V_4 V_5 V_6 V_7 V_8 V_9 V_10 V_11 V_12 V_13 V_14 V_15 V_16 V_17 V_18 V_19 V_20 V_21 V_22 V_23 V_24 V_25 V_26 V_27 V_28 V_29 V_30 V_31 V_32 V_33 V_34 V_35 V_36 V_37 V_38 V_39 V_40 V_41 V_42 V_43 V_44 V_45 V_46 V_47 V_48 V_49 V_50 V_51 V_52 V_53 V_54 V_55 V_56 V_57 V_58 V_59 V_60 V_61 V_62 V_63 V_64 V_65 V_66 V_67 V_68 V_69 V_70 V_71 V_72 V_73 V_74 V_75 V_76 V_77 V_78 V_79 V_80 V_81 V_82 V_83 V_84 V_85 V_86 V_87 V_88 V_89 V_90 V_91 V_92 V_93 V_94 V_95 V_96 V_97 V_98 V_99 V_100 V_101 V_102 V_103 V_104 V_105 V_106 V_107 V_108 V_109 V_110 V_111 V_112 V_113 V_114 V_115 V_116 V_117 V_118 V_119 V_120 V_121 V_122 V_123 V_124 V_125 V_126 V_127 V_128 V_129 V_130 V_131 V_132 V_133 V_134 V_135 V_136 V_137 V_138 V_139 V_140 V_141 V_142 V_143 V_144 V_145 V_146 V_147 V_148 V_149 V_150 V_151 V_152 V_153 V_154 V_155 V_156 V_157 V_158 V_159 V_160 V_161 V_162 V_163 V_164 V_165 V_166 V_167 V_168 V_169 V_170 V_171 V_172 V_173 V_174 V_175 V_176 V_177 V_178 V_179 V_180 V_181 V_182 V_183 V_184 V_185 V_186 V_187 V_188 V_189 V_190 V_191 V_192 V_193 V_194 V_195 V_196 V_197 V_198 V_199 V_200 V_201 V_202 V_203 V_204 V_205 V_206 V_207 V_208 V_209 V_210 V_211 V_212 V_213 V_214 V_215 V_216 V_217 V_218 V_219 V_220 V_221 V_222 V_223 V_224 V_225 V_226 V_227 V_228 V_229 V_230 V_231 V_232 V_233 V_234 V_235 V_236 V_237 V_238 V_239 V_240 V_241 V_242 V_243 V_244 V_245 V_246 V_247 V_248 V_249 V_250 V_251 V_252 V_253 V_254 V_255
feature_infos=[0:0.94575500488281239] [0:0.20257568359375] [0:0.096649169921875] [0:0.105560302734375] [0:0.1055908203125] [0:0.0760650634765625] [0:0.1089324951171875] [0:0.2082977294921875] [0:0.1618194580078125] [0:0.1634521484375] [0:0.2534637451171875] [0:0.2021942138671875] [0:0.298187255859375] [0:0.4471282958984375] [0:0.4910430908203125] [0:0.616058349609375] [0:0.5687255859375] [0:0.5445098876953125] [0:0.6114654541015625] [0:0.64111328125] [0:0.6208343505859375] [0:0.703094482421875] [0:0.5695343017578125] [0:0.7205657958984375] [0:0.7265777587890625] [0:0.6764678955078125] [0:0.4142913818359375] [0:0.25146484375] [0:0.2565460205078125] [0:0.380523681640625] [0:0.99821472167968761] [0:0.292144775390625] [0:0.2142486572265625] [0:0.0139617919921875] [0:0.01861572265625] [0:0.0671844482421875] [0:0.0914459228515625] [0:0.00018310546875] [0:0.001312255859375] [0:0.0002899169921875] [0:0.00115966796875] [0:9.1552734375e-05] [0:0.000640869140625] [0:0.0002899169921875] none [0:0.0010833740234375] none none none none [0:0.00115966796875] none none none none none none none none none [0:0.0019073486328125] none none none none none none none none none none none none none none [0:0.0013885498046875] none none none none none none none none none none none none none none [0:0.0029296875] none none none none none none none none none none none none none none [0:0.00091552734375] none none none none [0:0.001068115234375] none none [0:0.0001983642578125] none none none none none none [0:0.0091400146484375] none none none none none [0:0.000335693359375] none [0:0.0007476806640625] none [0:0.0006256103515625] none none none none [0:0.00048828125] none none none none [0:0.0005950927734375] none none none none none none none none none [0:0.004180908203125] none none none none none none none none none none none none none none [0:0.0305328369140625] none none none none [0:0.0012664794921875] none none [0:0.0029754638671875] [0:0.0003662109375] [0:0.00067138671875] [0:0.0050048828125] [0:0.0368804931640625] [0:0.022979736328125] none none none none none none none none none none none none none none none none none none none none none none none none none none none none none none none none none none none none none none none none none none none none none none none none none none none none none none none none none none none none none none none none none none none none none none none none none none none none none [0:0.94575500488281239] [0:0.0168304443359375] [0:0.072296142578125] [0:0.027618408203125] [0:0.0733795166015625] [0:0.0947265625] [0:0.0738525390625] [0:0.04071044921875] [0:0.1013641357421875] [0:0.0383453369140625] [0:0.0813140869140625] [0:0.0225677490234375] [0:0.08837890625] [0:0.0615234375] [0:0.06097412109375] [0:0.049072265625] [0:0.0752105712890625] [0:0.0338134765625] [0:0.058868408203125] [0:0.03485107421875] [0:0.10333251953125] [0:0.0412750244140625] [0:0.0447845458984375] [0:0.053619384765625] [0:0.1125030517578125] [0:0.0532684326171875] [0:0.086395263671875] [0:0.0728912353515625] [0:0.1341400146484375] [0:0.0636749267578125] [0:0.0727081298828125] [0:0.030548095703125] [0:0.080078125] [0:0.0512237548828125] [0:0.0960235595703125] [0:0.0342559814453125] [0:0.1105499267578125] [0:0.0565643310546875] [0:0.112091064453125] [0:0.0493011474609375] [0:0.0674591064453125] [0:0.046112060546875] [0:0.0632476806640625] [0:0.0433502197265625] [0:0.0855560302734375] [0:0.078125] [0:0.092498779296875] [0:0.0822906494140625] [0:0.0738067626953125] [0:0.1148223876953125] [0:0.0956878662109375] [0:0.0727081298828125] [0:0.1188201904296875] [0:0.0604705810546875] [0:0.093017578125] [0:0.07672119140625] [0:0.1053009033203125] [0:0.14105224609375] [0:0.1265411376953125] [0:0.069366455078125] [0:0.1641387939453125] [0:0.0886077880859375] [0:0.081756591796875] [0:0.087738037109375] [0:0.096405029296875] [0:0.102874755859375] [0:0.122161865234375] [0:0.0794677734375] [0:0.088775634765625] [0:0.087005615234375] [0:0.1116180419921875] [0:0.112396240234375] [0:0.1514739990234375] [0:0.122406005859375] [0:0.0837249755859375] [0:0.0828857421875] [0:0.1669464111328125] [0:0.1737518310546875] [0:0.20330810546875] [0:0.1458892822265625] [0:0.188690185546875] [0:0.148529052734375] [0:0.120147705078125] [0:0.0991668701171875] [0:0.1400299072265625] [0:0.1371917724609375] [0:0.1420135498046875] [0:0.14935302734375] [0:0.1681365966796875] [0:0.1570281982421875] [0:0.127777099609375] [0:0.1276397705078125] [0:0.142669677734375] [0:0.1811676025390625] [0:0.140380859375] [0:0.215423583984375] [0:0.1434326171875] [0:0.1412353515625] [0:0.121917724609375] [0:0.1310577392578125] [0:0.1360626220703125] [0:0.1422882080078125] [0:0.1511077880859375] [0:0.1441650390625] [0:0.13671875] [0:0.1318359375] [0:0.1442718505859375] [0:0.128814697265625] [0:0.152191162109375] [0:0.1264190673828125] [0:0.1348114013671875] [0:0.140289306640625] [0:0.12109375] [0:0.12371826171875] [0:0.120819091796875] [0:0.116119384765625] [0:0.116546630859375] [0:0.113067626953125] [0:0.1121063232421875] [0:0.1238555908203125] [0:0.1239776611328125] [0:0.1298675537109375] [0:0.12884521484375] [0:0.114105224609375] [0:0.123291015625] [0:0.105224609375] [0:0.118072509765625] [0:0.1033172607421875] [0:0.1545562744140625] [0:0.10693359375] [0:0.1470947265625] [0:0.1508941650390625] [0:0.1431884765625] [0:0.1043853759765625] [0:0.1089019775390625] [0:0.1158294677734375] [0:0.1030731201171875] [0:0.125030517578125] [0:0.110565185546875] [0:0.110321044921875] [0:0.1237945556640625] [0:0.10467529296875] [0:0.1438140869140625] [0:0.1124725341796875] [0:0.1170501708984375] [0:0.117462158203125] [0:0.104248046875] [0:0.1241302490234375] [0:0.1079864501953125] [0:0.096588134765625] [0:0.121612548828125] [0:0.1120452880859375] [0:0.1302032470703125] [0:0.134979248046875] [0:0.137725830078125] [0:0.14154052734375] [0:0.1209259033203125] [0:0.127716064453125] [0:0.1380615234375] [0:0.1166534423828125] [0:0.12054443359375] [0:0.11541748046875] [0:0.133575439453125] [0:0.10504150390625] [0:0.14898681640625] [0:0.1276702880859375] [0:0.1128692626953125] [0:0.1199798583984375] [0:0.11273193359375] [0:0.1161956787109375] [0:0.126678466796875] [0:0.1161651611328125] [0:0.1055908203125] [0:0.1281890869140625] [0:0.1069793701171875] [0:0.1021728515625] [0:0.1110076904296875] [0:0.1419677734375] [0:0.111572265625] [0:0.12115478515625] [0:0.11322021484375] [0:0.108734130859375] [0:0.1204681396484375] [0:0.0934906005859375] [0:0.115325927734375] [0:0.1235809326171875] [0:0.115020751953125] [0:0.1418304443359375] [0:0.150909423828125] [0:0.122955322265625] [0:0.1070709228515625] [0:0.0937347412109375] [0:0.1243133544921875] [0:0.0881500244140625] [0:0.0819244384765625] [0:0.141937255859375] [0:0.114532470703125] [0:0.15313720703125] [0:0.1007537841796875] [0:0.1168212890625] [0:0.1305084228515625] [0:0.114105224609375] [0:0.166259765625] [0:0.1978302001953125] [0:0.12310791015625] [0:0.100921630859375] [0:0.093170166015625] [0:0.081787109375] [0:0.0910797119140625] [0:0.0756683349609375] [0:0.0963134765625] [0:0.1310272216796875] [0:0.1320648193359375] [0:0.1409759521484375] [0:0.121337890625] [0:0.139801025390625] [0:0.169525146484375] [0:0.0746307373046875] [0:0.0699462890625] [0:0.0875396728515625] [0:0.0944366455078125] [0:0.399810791015625] [0:0.0629425048828125] [0:0.1091766357421875] [0:0.13885498046875] [0:0.126861572265625] [0:0.111907958984375] [0:0.08489990234375] [0:0.094268798828125] [0:0.1053466796875] [0:0.0989990234375] [0:0.0870513916015625] [0:0.07110595703125] [0:0.0771942138671875] [0:0.097442626953125] [0:0.18914794921875] [0:0.2093963623046875] [0:0.1552581787109375] [0:0.185333251953125] [0:0.10650634765625] [0:0.1362762451171875] [0:0.1053314208984375] [0:0.2015533447265625] [0:0.101776123046875] [0:0.1475982666015625] [0:0.089752197265625] [0:0.1254425048828125] [0:0.170501708984375] [0:0.10577392578125] [0:0.184600830078125] [0:0.23211669921875] [0:0.3049163818359375] [0:0.3648223876953125] [0:0.3443603515625] none [0:0.8096160888671875] [0:0.804779052734375] [0:0.02685546875] [0:0.08294677734375] [0:0.0059814453125] [0:0.0585784912109375] [0:0.0222320556640625] [0:0.0970916748046875] [0:0.0118408203125] [0:0.0482025146484375] [0:0.2338714599609375] [0:0.074798583984375] [0:0.069976806640625] [0:0.0848236083984375] [0:0.052642822265625] [0:0.1037139892578125] [0:0.114105224609375] [0:0.1340789794921875] [0:0.0654144287109375] [0:0.072662353515625] [0:0.0634002685546875] [0:0.1234130859375] [0:0.0367279052734375] [0:0.1414794921875] [0:0.0643157958984375] [0:0.070526123046875] [0:0.041656494140625] [0:0.1158905029296875] [0:0.045166015625] [0:0.0956878662109375] [0:0.0527801513671875] [0:0.0440826416015625] [0:0.043304443359375] [0:0.10333251953125] [0:0.068572998046875] [0:0.065521240234375] [0:0.07305908203125] [0:0.0788116455078125] [0:0.0924530029296875] [0:0.1062774658203125] [0:0.1249237060546875] [0:0.1048431396484375] [0:0.098358154296875] [0:0.12152099609375] [0:0.092010498046875] [0:0.0728759765625] [0:0.051177978515625] [0:0.0651702880859375] [0:0.063873291015625] [0:0.0573272705078125] [0:0.0770721435546875] [0:0.1044769287109375] [0:0.0910186767578125] [0:0.1087493896484375] [0:0.142425537109375] [0:0.1761016845703125] [0:0.1332244873046875] [0:0.2023162841796875] [0:0.0968475341796875] [0:0.0785369873046875] [0:0.12237548828125] [0:0.1660919189453125] [0:0.1668243408203125] [0:0.2274169921875] [0:0.21649169921875] [0:0.134002685546875] [0:0.1590118408203125] [0:0.10467529296875] [0:0.1010284423828125] [0:0.16009521484375] [0:0.180877685546875] [0:0.142852783203125] [0:0.066864013671875] [0:0.069091796875] [0:0.269561767578125] [0:0.1280670166015625] [0:0.1559906005859375] [0:0.2175140380859375] [0:0.155303955078125] [0:0.1611328125] [0:0.208953857421875] [0:0.119720458984375] [0:0.1228485107421875] [0:0.13885498046875] [0:0.0803375244140625] [0:0.0806884765625] [0:0.09796142578125] [0:0.1170501708984375] [0:0.2227935791015625] [0:0.314788818359375] [0:0.2170257568359375] [0:0.3198699951171875] [0:0.22418212890625] [0:0.197723388671875] [0:0.17919921875] [0:0.12945556640625] [0:0.1870269775390625] [0:0.162017822265625] [0:0.2335357666015625] [0:0.150482177734375] [0:0.1696319580078125] [0:0.1391143798828125] [0:0.128204345703125] [0:0.11505126953125] [0:0.1326904296875] [0:0.194915771484375] [0:0.2655792236328125] [0:0.152435302734375] [0:0.1862945556640625] [0:0.242218017578125] [0:0.1894378662109375] [0:0.1664581298828125] [0:0.2040557861328125] [0:0.211944580078125] [0:0.1576385498046875] [0:0.1806488037109375] [0:0.1782684326171875] [0:0.1730804443359375] [0:0.20751953125] [0:0.2039337158203125] [0:0.1753997802734375] [0:0.185211181640625] [0:0.171661376953125] [0:0.1486053466796875] [0:0.1264801025390625] [0:0.1609954833984375] [0:0.1528472900390625] [0:0.259429931640625] [0:0.2677001953125] [0:0.173248291015625] [0:0.2236785888671875] [0:0.2391357421875] [0:0.21484375] [0:0.3086395263671875] [0:0.2361602783203125] [0:0.20599365234375] [0:0.1901092529296875] [0:0.2188568115234375] [0:0.1523284912109375] [0:0.1939239501953125] [0:0.6102294921875] [0:0.365020751953125] [0:0.7872161865234375] [0:0.194305419921875] [0:0.2364654541015625] [0:0.490692138671875] [0:0.20550537109375] [0:0.2453155517578125] [0:0.749176025390625] [0:0.303466796875] [0:0.4504241943359375] [0:0.2364349365234375] [0:0.5364227294921875] [0:0.1780548095703125] [0:0.1602325439453125] [0:0.170806884765625] [0:0.729248046875] [0:0.25970458984375] [0:0.2294464111328125] [0:0.34051513671875] [0:0.7682647705078125] [0:0.5938873291015625] [0:0.51593017578125] [0:0.5383758544921875] [0:0.7681427001953125] [0:0.562408447265625] [0:0.6767120361328125] [0:0.5879058837890625] [0:0.7465057373046875] [0:0.358642578125] [0:0.2345733642578125] [0:0.512908935546875] [0:0.3095703125] [0:0.504302978515625] [0:0.6357421875] [0:0.35400390625] [0:0.1378631591796875] [0:0.244537353515625] [0:0.4781951904296875] [0:0.765594482421875] [0:0.1964569091796875] [0:0.246734619140625] [0:0.512298583984375] [0:0.5989532470703125] [0:0.5595550537109375] [0:0.3578643798828125] [0:0.554168701171875] [0:0.674560546875] [0:0.730743408203125] [0:0.6796112060546875] [0:0.7601470947265625] [0:0.5708465576171875] [0:0.5515899658203125] [0:0.7341461181640625] [0:0.6433868408203125] [0:0.723419189453125] [0:0.696807861328125] [0:0.7393798828125] [0:0.63531494140625] [0:0.8413848876953125] [0:0.2740631103515625] [0:0.729248046875] [0:0.5415496826171875] [0:0.53900146484375] [0:0.4451141357421875] [0:0.655181884765625] [0:0.7413177490234375] [0:0.4026947021484375] [0:0.53326416015625] [0:0.781494140625] [0:0.6539306640625] [0:0.7346038818359375] [0:0.2702178955078125] [0:0.47454833984375] [0:0.792449951171875] [0:0.389404296875] [0:0.5836639404296875] [0:0.6073760986328125] [0:0.5931854248046875] [0:0.8632965087890625] [0:0.441802978515625] [0:0.7176513671875] [0:0.6068267822265625] [0:0.529449462890625] [0:0.5370330810546875] [0:0.2490997314453125] [0:0.5830535888671875] [0:0.5101470947265625] [0:0.4583587646484375] [0:0.721954345703125] [0:0.50726318359375] [0:0.5451507568359375] [0:0.7988433837890625] [0:0.2421722412109375] [0:0.447723388671875] [0:0.5916748046875] [0:0.387664794921875] [0:0.7938995361328125] [0:0.7162628173828125] [0:0.67657470703125] [0:0.78240966796875] [0:0.444854736328125] [0:0.575836181640625] [0:0.6657257080078125] [0:0.763580322265625] [0:0.5741424560546875] [0:0.2150421142578125] [0:0.75177001953125] [0:0.544342041015625] [0:0.807647705078125] [0:0.6518096923828125] [0:0.5301513671875] [0:0.2554779052734375] [0:0.7743988037109375] [0:0.77490234375] [0:0.331512451171875] [0:0.999542236328125]
tree_sizes=3175 3190 3238 2609 3425 3436 3448 3443 3443 3434 3454 3439 3437 3451 3469 3441 3425 3451 3447 3438 3443 3448 3439 3463 3461 3470 3450 3449 3449 3473 3452 3444 3449 3465 3450 3465 3452 3472 3445 3460 3449 3469 3454 3484 3457 3459 3449 3499 3459 3463 3451 3459 3461 3459 3460 3473 3449 3460 3466 3483 3451 3438 3475 3468 3459 3444 3473 3472 3464 3468 3473 3489 3462 3490 3465 3496 3474 3479 3475 3489 3472 3474 3466 3486 3454 3451 3468 3492 3460 3489 3470 3501 3461 3476 3469 3486 3470 3490 3465 3495 3495 3480 3470 3508 3479 3472 3461 3523 3464 3467 3467 3488 3501 3483 3481 3515 3503 3469 3494 3528 3500 3503 3494 3519 3500 3473 3484 3522 3488 3502 3489 3523 3498 3502 3506 3543 3514 3506 3494 3538 3509 3504 3507 3536 3509 3512 3512 3539 3511 3540 3495 3518 3522 3516 3496 3541 3523 3532 3523 3544 3508 3509 3509 3549 3538 3531 3524 3564 3529 3516 3511 3570 3518 3526 3520 3572 3539 3516 3512 3550 3529 3524 3521 3561 3538 3541 3542 3570 3533 3526 3533 3563 3526 3539 3532 3562 3528 3554 3519 3582 3540 3533 3555 3585 3530 3531 3531 3598 3557 3543 3540 3576 3544 3536 3532 3615 3544 3536 3541 3595 3579 3585 3525 3608 3557 3562 3556 3626 3570 3570 3562 3619 3570 3590 3576 3632 3573 3598 3581 3588 3593 3572 3576 3627 3594 3613 3559 3632 3606 3598 3587 3626 3602 3583 3580 3629 3596 3603 3602 3626

Tree=0
num_leaves=31
num_cat=0
split_feature=20 21 26 29 22 767 19 25 299 25 45 19 301 323 19 268 322 21 291 302 350 23 354 20 27 23 511 495 333 21
split_gain=621.168 309.766 214.403 142.975 132.505 80.7176 56.2504 41.9905 38.8627 37.0991 34.0695 25.7946 24.645 22.0892 19.6505 18.251 12.9606 14.2155 8.93864 6.03737 12.2965 5.15703 4.84 4.79064 4.44406 10.8 4.31934 7.87692 1.94444 1.7611
threshold=0.11570739746093751 0.32481384277343756 0.014472961425781252 0.026695251464843753 0.043281555175781257 0.59634399414062511 0.22257232666015628 0.00034332275390625005 0.00057220458984375011 0.024116516113281253 5.3405761718750007e-05 0.51357269287109386 0.00063323974609375011 0.0011520385742187502 0.20829772949218753 0.00014495849609375003 0.00092315673828125011 3.8146972656250007e-05 0.0023117065429687504 0.00012969970703125003 0.00031280517578125005 0.078453063964843764 0.020439147949218753 0.20452880859375003 0.032646179199218757 0.12649536132812503 0.60542297363281261 0.0015106201171875002 0.0053024291992187509 0.067619323730468764
decision_type=2 2 2 2 2 2 2 2 2 2 2 2 2 2 2 2 2 2 2 2 2 2 2 2 2 2 2 2 2 2
left_child=1 3 4 5 8 14 15 18 -2 11 16 13 -12 19 24 -4 17 -9 28 20 23 -7 -18 -6 26 -26 29 -28 -5 -1
right_child=2 -3 6 7 9 21 -8 10 -10 -11 12 -13 -14 -15 -16 -17 22 -19 -20 -21 -22 -23 -24 -25 25 -27 27 -29 -30 -31
leaf_value=-1.4857798916665144 -1.4862943611198904 -1.0979448465567838 -1.4835546350924933 -1.0862943611198908 -1.1796276944532238 -1.2662943611198905 -1.1455536203791499 -1.2510002434728318 -1.1662943611198906 -1.3529610277865571 -1.1215884787669494 -1.3462943611198905 -1.3862943611198906 -1.3148657896913192 -1.330738805564335 -1.301678976504506 -1.4762943611198907 -1.4434372182627477 -1.2862943611198905 -1.0862943611198905 -1.2438701186956482 -1.1243895992151287 -1.3662943611198906 -1.0898031330497151 -1.4862943611198907 -1.3062943611198905 -1.3262943611198905 -1.4862943611198907 -1.169627694453224 -1.4681125429380724
leaf_weight=388.75 15.750000000000002 25.75 36.5 5.2500000000000018 7.4999999999999991 4.9999999999999982 6.7499999999999991 8.4999999999999982 4.9999999999999991 7.4999999999999991 8.4999999999999982 4.9999999999999991 5.9999999999999991 5.2499999999999991 8.9999999999999982 6.4999999999999991 20.000000000000004 6.9999999999999991 5.4999999999999991 68 8.2499999999999982 5.25 4.9999999999999991 28.5 9.9999999999999982 4.9999999999999991 4.9999999999999991 7.9999999999999991 6 66
leaf_count=1555 63 103 146 21 30 20 27 34 20 30 34 20 24 21 36 26 80 28 22 272 33 21 20 114 40 20 20 32 24 264
internal_value=-1.38629 -1.43725 -1.23393 -1.45248 -1.17452 -1.47135 -1.41393 -1.32044 -1.40919 -1.13706 -1.36266 -1.12385 -1.23112 -1.11438 -1.47714 -1.45606 -1.40975 -1.33791 -1.18182 -1.105 -1.13375 -1.19361 -1.45429 -1.10852 -1.47987 -1.42629 -1.48159 -1.42476 -1.13074 -1.48322
internal_weight=0 599.5 200.5 573.75 150.75 502 49.75 71.75 20.75 130 55 122.5 14.5 117.5 491.75 43 40.5 15.5 16.75 112.25 44.25 10.25 25 36 482.75 15 467.75 13 11.25 454.75
internal_count=3200 2398 802 2295 603 2008 199 287 83 520 220 490 58 470 1967 172 162 62 67 449 177 41 100 144 1931 60 1871 52 45 1819
is_linear=0
shrinkage=1


Tree=1
num_leaves=31
num_cat=0
split_feature=300 359 22 24 316 21 19 22 296 32 17 16 31 32 25 26 685 32 293 436 310 315 338 21 26 766 335 336 346 320
split_gain=481.103 206.666 116.372 82.7307 77.9449 68.4609 66.0161 58.1818 53.9616 39.2994 35.843 96.2956 34.7674 36.0708 26.021 45.5936 24.2801 22.7017 21.4892 20.6293 17.426 16.2502 15.4462 35.57 47.8814 13.8213 10.3149 9.45339 8.66512 7.34928
threshold=0.0019607543945312504 0.00049591064453125011 0.44797515869140631 0.46218109130859381 0.0010910034179687502 0.17974090576171878 0.52679443359375011 0.018241882324218753 1.0000000180025095e-35 0.0079421997070312517 0.32865905761718756 0.065048217773437514 0.0044479370117187509 0.0036697387695312504 0.48595428466796881 0.14175415039062503 0.00055694580078125011 0.00031280517578125005 0.00095367431640625011 0.00034332275390625005 0.00098419189453125022 0.00072479248046875011 0.00067901611328125011 0.19935607910156253 0.010948181152343752 0.015594482421875002 0.0091476440429687517 0.032081604003906257 0.0014877319335937502 0.0013504028320312502
decision_type=2 2 2 2 2 2 2 2 2 2 2 2 2 2 2 2 2 2 2 2 2 2 2 2 2 2 2 2 2 2
left_child=2 17 3 4 6 9 10 -3 -5 16 12 -12 14 -14 22 -16 18 -2 19 27 -7 -9 -1 26 -25 29 -24 -6 -26 -19
right_child=1 7 -4 8 5 20 -8 21 -10 -11 11 -13 13 -15 15 -17 -18 25 -20 -21 -22 -23 23 24 28 -27 -28 -29 -30 -31
leaf_value=-1.4769591418836812 -1.4759047507302803 -1.3929610277865572 -1.0862943611198905 -1.1019806356296946 -1.4667821659979394 -1.3148657896913192 -1.1888584636839932 -1.2681125429380724 -1.4144994893250187 -1.1243895992151287 -1.1048990122826812 -1.4721767140610671 -1.4247558995814291 -1.1044761793017086 -1.1044761793017086 -1.4862943611198907 -1.4825560433628813 -1.3529610277865574 -1.2005800754056049 -1.2462943611198907 -1.0949900132938035 -1.0901904650159944 -1.4676415113789578 -1.4760379508634802 -1.0862943611198905 -1.4346814578940841 -1.3297726219894559 -1.3262943611198905 -1.2662943611198907 -1.2075064823320119
leaf_weight=353.5 19.25 7.4999999999999991 10.249999999999998 12.750000000000002 20.500000000000004 5.2500000000000027 9.7499999999999982 5.4999999999999991 9.7499999999999982 5.2499999999999991 10.749999999999998 21.25 9.7499999999999982 5.4999999999999991 5.4999999999999982 7.25 26.75 6.0000000000000027 6.9999999999999991 7.4999999999999991 11.499999999999998 77 96.5 9.7500000000000018 5.7499999999999982 7.7499999999999991 5.7499999999999991 6.2499999999999991 5 8.2499999999999982
leaf_count=1414 77 30 41 51 82 21 39 22 39 21 43 85 39 22 22 29 107 24 28 30 46 308 386 39 23 31 23 25 20 33
internal_value=-1.38629 -1.21125 -1.42065 -1.42585 -1.43252 -1.34629 -1.44673 -1.12629 -1.23741 -1.388 -1.45142 -1.34879 -1.45794 -1.30925 -1.46257 -1.32159 -1.40835 -1.3966 -1.36023 -1.39286 -1.16391 -1.10205 -1.46635 -1.43579 -1.31556 -1.3272 -1.45989 -1.43396 -1.17002 -1.26875
internal_weight=0 131.25 668.75 658.5 636 90 546 90 22.5 73.25 536.25 32 504.25 15.25 489 12.75 68 41.25 41.25 34.25 16.75 82.5 476.25 122.75 20.5 22 102.25 26.75 10.75 14.25
internal_count=3200 525 2675 2634 2544 360 2184 360 90 293 2145 128 2017 61 1956 51 272 165 165 137 67 330 1905 491 82 88 409 107 43 57
is_linear=0
shrinkage=1


Tree=2
num_leaves=31
num_cat=0
split_feature=16 18 24 284 766 18 23 19 29 18 580 20 398 323 304 766 365 301 292 1 16 311 18 15 26 296 18 385 670 308
split_gain=1416.54 194.037 128.336 48.2356 41.059 32.4 29.5707 40.8668 18.2985 23.3899 12.3553 8.1554 7.06719 6.65861 6.91578 4.73418 4.59376 4.17799 3.88658 3.76519 3.46154 2.80867 2.66633 1.64643 0.731312 0.718782 0.338726 0.427907 0.199009 0.583784
threshold=0.044540405273437507 0.35594177246093756 0.022872924804687503 1.0000000180025095e-35 0.27388000488281256 0.00016021728515625003 1.0000000180025095e-35 0.24195098876953128 0.015029907226562502 5.3405761718750007e-05 0.00047302246093750005 0.10427093505859376 0.00026702880859375005 0.010032653808593752 0.00014495849609375003 0.22163391113281253 2.2888183593750003e-05 0.0084228515625000017 0.0033187866210937504 1.0000000180025095e-35 0.00023651123046875003 0.0015792846679687502 0.32863616943359381 0.00012969970703125003 0.012603759765625002 0.00025177001953125005 0.28653717041015631 0.012199401855468752 0.035675048828125007 1.0000000180025095e-35
decision_type=2 2 2 2 2 2 2 2 2 2 2 2 2 2 2 2 2 2 2 2 2 2 2 2 2 2 2 2 2 2
left_child=1 4 10 12 6 -6 7 16 15 13 11 21 -4 14 -10 19 -1 25 -5 22 -3 23 26 -2 -25 -16 28 -28 -8 -30
right_child=2 20 3 18 5 -7 8 -9 9 -11 -12 -13 -14 -15 17 -17 -18 -19 -20 -21 -22 -23 -24 24 -26 -27 27 -29 29 -31
leaf_value=-1.3737943611198906 -1.1462943611198906 -1.0862943611198905 -1.3478328226583522 -1.1044761793017086 -1.4462943611198906 -1.0862943611198905 -1.4860691358946654 -1.1062943611198905 -1.3737943611198906 -1.2808889557144851 -1.2499307247562541 -1.2196276944532238 -1.4777837228220183 -1.3577229325484621 -1.4462943611198906 -1.4005800754056048 -1.4760379508634802 -1.3862943611198906 -1.2262943611198907 -1.4062943611198906 -1.1862943611198906 -1.1662943611198906 -1.4167291437285863 -1.0862943611198905 -1.1243895992151287 -1.4862943611198907 -1.4862943611198907 -1.4462943611198906 -1.4462943611198906 -1.4862943611198907
leaf_weight=8.0000000000000053 4.9999999999999991 11.250000000000002 6.5000000000000062 5.4999999999999982 4.9999999999999982 5 444 4.9999999999999991 7.9999999999999991 9.2499999999999982 5.4999999999999991 5.2499999999999991 11.749999999999998 6.9999999999999991 4.9999999999999991 6.9999999999999991 9.7499999999999982 4.9999999999999991 5 6.2499999999999991 4.9999999999999991 4.9999999999999991 5.7499999999999991 125.5 5.2499999999999991 44.25 5.7499999999999982 5 5.0000000000000027 13.499999999999998
leaf_count=32 20 45 26 22 20 20 1776 20 32 37 22 21 47 28 20 28 39 20 20 25 20 20 23 502 21 177 23 20 20 54
internal_value=-1.38629 -1.45806 -1.13955 -1.33325 -1.46724 -1.26629 -1.47062 -1.35882 -1.47508 -1.43024 -1.1028 -1.09725 -1.4315 -1.45019 -1.46059 -1.48223 -1.42996 -1.47339 -1.16248 -1.48341 -1.11706 -1.09269 -1.48442 -1.08998 -1.08782 -1.48223 -1.48524 -1.46769 -1.48565 -1.47548
internal_weight=0 619.75 180.25 28.75 603.5 10 593.5 22.75 570.75 78.5 151.5 146 18.25 69.25 62.25 492.25 17.75 54.25 10.5 485.25 16.25 140.75 479 135.75 130.75 49.25 473.25 10.75 462.5 18.5
internal_count=3200 2479 721 115 2414 40 2374 91 2283 314 606 584 73 277 249 1969 71 217 42 1941 65 563 1916 543 523 197 1893 43 1850 74
is_linear=0
shrinkage=1


Tree=3
num_leaves=25
num_cat=0
split_feature=25 28 177 24 765 296 25 734 298 560 751 353 574 31 24 297 333 22 682 23 21 28 333 26
split_gain=1312.63 313.14 130.467 80.5355 83.2178 57.8733 34.2671 27.7743 14.6838 12.1153 10.208 9.42314 12.1 9.4877 4.70337 16.7391 3.57353 2.74107 1.6999 1.47588 0.48 0.267777 0.524138 0.19308
threshold=0.045433044433593757 0.010864257812500002 1.0000000180025095e-35 0.46218109130859381 0.014816284179687502 1.0000000180025095e-35 0.29756164550781256 0.015037536621093752 0.0016860961914062502 2.2888183593750003e-05 0.00093078613281250011 3.8146972656250007e-05 3.8146972656250007e-05 9.9182128906250014e-05 0.12194824218750001 0.0015640258789062502 0.019042968750000003 0.32425689697265631 0.023994445800781253 0.24523925781250003 1.0000000180025095e-35 0.021934509277343753 0.0024642944335937504 0.0071182250976562509
decision_type=2 2 2 2 2 2 2 2 2 2 2 2 2 2 2 2 2 2 2 2 2 2 2 2
left_child=2 3 9 4 7 20 10 8 11 14 19 12 -2 17 16 -16 21 18 23 -3 -5 -1 -23 -13
right_child=1 6 -4 5 -6 -7 -8 -9 -10 -11 -12 13 -14 -15 15 -17 -18 -19 -20 -21 -22 22 -24 -25
leaf_value=-1.4862943611198907 -1.3062943611198905 -1.4862943611198907 -1.107346992698838 -1.4462943611198906 -1.4714795463050758 -1.1403484151739445 -1.1953852702107997 -1.3462943611198905 -1.2681125429380724 -1.3262943611198905 -1.3262943611198905 -1.1062943611198905 -1.0862943611198905 -1.2196276944532238 -1.2862943611198907 -1.4862943611198907 -1.4247558995814291 -1.1624848373103667 -1.1462943611198906 -1.4291515039770335 -1.4862943611198907 -1.4462943611198906 -1.4862943611198907 -1.0862943611198905
leaf_weight=480.25 4.9999999999999982 32.5 9.4999999999999982 5.0000000000000018 6.7499999999999991 9.2499999999999982 5.4999999999999991 4.9999999999999991 5.4999999999999991 4.9999999999999991 4.9999999999999991 4.9999999999999991 5 5.9999999999999991 5.5000000000000027 17.5 9.7499999999999982 5.2499999999999991 4.9999999999999991 5.2499999999999991 7.5 4.9999999999999991 9.4999999999999982 139.5
leaf_count=1921 20 130 38 20 27 37 22 20 22 20 20 20 20 24 22 70 39 21 20 21 30 20 38 558
internal_value=-1.38629 -1.20064 -1.47467 -1.1478 -1.12672 -1.32997 -1.43034 -1.11388 -1.10729 -1.48122 -1.46056 -1.10211 -1.19629 -1.09625 -1.48269 -1.43847 -1.48471 -1.09146 -1.08897 -1.47835 -1.47029 -1.48589 -1.4725 -1.08699
internal_weight=0 258 542 209.75 188 21.75 48.25 181.25 176.25 532.5 42.75 170.75 10 160.75 527.5 23 504.5 154.75 149.5 37.75 12.5 494.75 14.5 144.5
internal_count=3200 1032 2168 839 752 87 193 725 705 2130 171 683 40 643 2110 92 2018 619 598 151 50 1979 58 578
is_linear=0
shrinkage=1


Tree=4
num_leaves=31
num_cat=0
split_feature=20 21 26 30 22 767 18 25 302 165 595 325 273 319 19 286 22 19 27 27 23 324 511 550 32 765 21 270 19 379
split_gain=468.45 226.934 140.918 121.592 83.2284 56.0952 42.7124 40.8966 31.4093 24.827 21.8742 23.247 19.3242 18.3217 17.4502 11.0015 9.66113 12.8734 8.40231 7.7194 20.8034 4.86928 4.15937 7.3169 2.78936 2.71554 2.13977 8.14758 4.56729 1.44159
threshold=0.11570739746093751 0.32481384277343756 0.014472961425781252 0.042304992675781257 0.043281555175781257 0.59634399414062511 0.19462585449218753 0.00038909912109375005 0.00051116943359375011 3.8146972656250007e-05 0.00095367431640625011 0.0010604858398437502 0.00025177001953125005 0.00070953369140625011 0.20829772949218753 0.00054168701171875011 0.051605224609375007 0.40980529785156256 0.080772399902343764 0.032646179199218757 0.16092681884765628 0.018852233886718753 0.60542297363281261 0.0017547607421875002 0.0013656616210937502 0.038940429687500007 0.067619323730468764 9.9182128906250014e-05 0.13957214355468753 1.0000000180025095e-35
decision_type=2 2 2 2 2 2 2 2 2 2 2 2 2 2 2 2 2 2 2 2 2 2 2 2 2 2 2 2 2 2
left_child=1 3 4 5 8 14 12 15 -2 13 11 16 -4 18 19 -5 17 -6 -9 22 -21 -17 26 -24 -15 29 -1 28 -28 -18
right_child=2 -3 6 7 10 -7 -8 9 -10 -11 -12 -13 -14 24 -16 21 25 -19 -20 20 -22 -23 23 -25 -26 -27 27 -29 -30 -31
leaf_value=-0.096278352547823826 -0.097620465009965907 0.21922144936690735 -0.089182804802010879 0.22489566245488019 0.2179147270470829 0.18245917171984097 0.23760909862491619 0.0070905843943287819 0.18115817654366959 0.15501541780044226 -0.0076722836751621616 0.039257715750442047 0.089372417713636368 -0.022562106087007806 0.049748241920732017 0.15594917799507144 0.18775177186805714 0.030157628340421756 0.16229096871232901 -0.097286818876230807 0.14134130469663711 0.021976092531827737 0.058455823210445991 -0.09734586075565832 -0.089192677724938857 0.15269403020207972 -0.095158108524911716 0.049729574831514516 0.0071346389065151256 0.2267787861593612
leaf_weight=357.06966979801655 14.870568454265596 30.23559382557869 35.827862486243248 12.924715712666513 8.2001974284648878 7.9064501225948325 5.4718887209892264 9.1930247992277128 5.5497646480798712 9.2045532613992673 5.2231183648109427 8.4060669243335706 7.2953602224588385 8.8837228268384951 9.2516994178295118 5.3752108961343747 10.401944816112517 6.5836014151573172 5.6212997585535041 11.73217795789242 5.3054364919662467 5.4772372245788574 5.0315678268671018 7.5182536840438843 21.460375294089317 5.7232445180416098 52.196417838335037 4.7489889860153189 4.7631523609161368 105.05701625347137
leaf_count=1545 63 103 152 46 28 28 19 36 20 34 20 32 28 35 36 20 36 24 21 50 20 20 20 32 89 20 223 20 20 360
internal_value=0 -0.0474261 0.124594 -0.0622556 0.167518 -0.0816311 -0.0255798 0.0531752 -0.021855 0.00533035 0.193369 0.200642 -0.0589758 -0.0251797 -0.0861939 0.162565 0.210619 0.134302 0.0659814 -0.088999 -0.0229791 0.0883329 -0.0916068 -0.0348807 -0.0696855 0.21993 -0.0933068 -0.076112 -0.086604 0.223263
internal_weight=0 573.9 218.611 543.664 170.016 465.524 48.5951 78.1401 20.4203 54.363 149.595 144.372 43.1232 45.1584 457.617 23.7772 135.966 14.7838 14.8143 448.366 17.0376 10.8524 431.328 12.5498 30.3441 121.182 418.778 61.7086 56.9596 115.459
internal_count=3200 2398 802 2295 603 1994 199 301 83 215 520 500 180 181 1966 86 468 52 57 1930 70 40 1860 52 124 416 1808 263 243 396
is_linear=0
shrinkage=0.1


Tree=5
num_leaves=31
num_cat=0
split_feature=301 360 22 338 21 656 24 23 19 280 289 17 16 14 32 283 24 35 31 28 344 19 303 27 654 320 293 21 326 25
split_gain=357.863 132.903 83.7388 74.0217 60.3514 48.1256 45.7674 49.3114 46.7208 45.1493 41.5471 37.9723 69.656 27.8874 27.8051 35.1672 19.6114 17.2245 16.4274 12.5435 15.1031 15.06 12.2405 8.88831 8.21611 7.2424 6.6194 5.91501 5.74961 5.06586
threshold=0.0019149780273437502 0.00049591064453125011 0.41104888916015631 0.00081634521484375011 0.18669891357421878 3.8146972656250007e-05 0.43831634521484381 0.24096679687500003 0.52679443359375011 0.00016021728515625003 0.0025711059570312504 0.32865905761718756 0.065048217773437514 3.8146972656250007e-05 0.0051498413085937509 3.8146972656250007e-05 0.46218109130859381 0.00011444091796875001 0.0038833618164062504 0.0075378417968750009 0.010513305664062502 0.097976684570312514 0.0077896118164062509 0.055130004882812507 0.030334472656250003 0.0013656616210937502 0.00075531005859375011 6.8664550781250014e-05 0.031570434570312507 0.51531982421875011
decision_type=2 2 2 2 2 2 2 2 2 2 2 2 2 2 2 2 2 2 2 2 2 2 2 2 2 2 2 2 2 2
left_child=2 17 3 6 5 10 8 -8 11 -6 14 18 -13 27 15 16 19 -2 25 21 -21 -5 -19 -16 -7 29 -11 -3 -17 -1
right_child=1 13 -4 4 9 24 7 -9 -10 26 -12 12 -14 -15 23 28 -18 22 -20 20 -22 -23 -24 -25 -26 -27 -28 -29 -30 -31
leaf_value=-0.086869470139284449 -0.074680521061879099 0.11904503078468823 0.21140742757182474 -0.050283882442711141 0.21935481438252788 -0.093597325123373543 0.22754217623373446 -0.079266759928500283 0.1499560290484627 -0.10002772640141369 0.23360253337369233 0.21688239967259643 -0.086494569250045381 -0.010671115488763724 0.068385964825262449 -0.081614273498001932 0.22284659217434277 0.12285205078053629 0.061654255175632479 0.23275542929542503 -0.0032631405548651038 0.11648319374000415 -0.062488446102585221 0.23766229002864897 0.040920723774411513 0.034405369519697762 0.055469715326999729 0.22669718994553115 0.027329345242794845 0.010668092531841648
leaf_weight=354.39976692199707 20.754696920514107 5.4162143021821967 14.003672733902929 20.681112065911297 22.153904691338539 55.114538416266441 11.248073503375055 9.8050354570150358 9.7383098006248456 5.93914946913719 9.059557765722273 12.516550034284593 19.143358618021011 5.5257506072521201 6.3689923286437971 41.639023512601852 6.01053562760353 10.990456908941271 7.9418089985847464 5.6729365140199643 5.1933278292417526 7.3359007984399787 5.2729576081037512 6.0469285249710083 4.9481608867645255 5.1172200888395301 5.0785230994224548 88.541425794363022 5.4821452647447577 5.4061006754636756
leaf_count=1517 86 21 49 86 77 235 39 40 35 24 32 43 82 22 24 173 21 41 31 22 21 29 21 21 20 20 20 304 22 22
internal_value=0 0.147461 -0.0305044 -0.0357808 0.0134917 -0.0101302 -0.0591795 0.0846525 -0.0664891 0.137081 0.0281783 -0.0716997 0.0334436 0.207652 0.0103574 -0.00859692 0.0547396 -0.0142976 -0.0806274 0.0287538 0.119955 -0.00661803 0.0627606 0.150829 -0.0825153 -0.0837239 -0.0283522 0.220492 -0.0689396 -0.085404
internal_weight=0 136.502 656.045 642.041 206.725 173.553 435.316 21.0531 414.263 33.1716 113.49 404.525 31.6599 99.4834 104.431 92.015 44.8938 37.0181 372.865 38.8833 10.8663 28.017 16.2634 12.4159 60.0627 364.923 11.0177 93.9576 47.1212 359.806
internal_count=3200 495 2705 2656 827 706 1829 79 1750 121 451 1715 125 347 419 374 179 148 1590 158 43 115 62 45 255 1559 44 325 195 1539
is_linear=0
shrinkage=0.1


Tree=6
num_leaves=31
num_cat=0
split_feature=16 18 24 766 284 23 19 18 29 18 322 18 301 304 766 399 325 1 372 767 18 511 16 297 295 392 388 373 21 678
split_gain=1027.28 147.757 76.7867 35.1809 28.1682 27.1019 32.816 22.0479 16.1951 20.0472 13.1595 8.88328 5.62676 5.93717 4.48454 4.40659 3.90998 3.63858 3.44788 7.40684 2.55084 2.15484 1.9502 0.966907 0.700759 0.344774 0.486601 0.28413 1.00108 0.208293
threshold=0.044540405273437507 0.35594177246093756 0.032318115234375007 0.27388000488281256 1.0000000180025095e-35 2.2888183593750003e-05 0.25308227539062506 0.00016021728515625003 0.015029907226562502 5.3405761718750007e-05 0.0016860961914062502 0.21709442138671878 0.0096969604492187517 0.00014495849609375003 0.22163391113281253 0.00023651123046875003 0.010795593261718752 1.0000000180025095e-35 1.0000000180025095e-35 0.85569000244140636 0.32863616943359381 0.44791412353515631 0.00023651123046875003 0.0028305053710937504 0.00023651123046875003 0.048995971679687507 0.034812927246093757 1.0000000180025095e-35 0.019065856933593753 0.092041015625000014
decision_type=2 2 2 2 2 2 2 2 2 2 2 2 2 2 2 2 2 2 2 2 2 2 2 2 2 2 2 2 2 2
left_child=1 3 10 5 15 6 18 -5 14 12 11 21 13 -10 17 -4 24 20 19 -1 25 23 -3 27 -15 29 -27 28 -2 -7
right_child=2 22 4 7 -6 8 -8 -9 9 -11 -12 -13 -14 16 -16 -17 -18 -19 -20 -21 -22 -23 -24 -25 -26 26 -28 -29 -30 -31
leaf_value=0.080387059129818805 0.22740240310420345 0.2284198719660136 0.016103661806958942 -0.055682309250028365 0.16186417769225547 -0.096157915834522212 0.23692425725034602 0.23483387563077121 0.0074141429682093073 0.091677618756951157 0.060026155289912078 0.10399183614814811 0.039566384404874755 -0.056734198080142455 -0.012316319512493942 -0.097990292460970227 0.00049671751705566167 -0.016841365527645712 -0.085695779189252586 -0.081318835931119729 -0.027639306335642391 0.17140494575553533 0.15818994088002816 0.18473875194365552 -0.097079917618091746 -0.053325556737374796 -0.096795668935019064 0.22833829839741449 0.18040970739235862 -0.074792897395978636
leaf_weight=5.5289953947067314 20.333697974681858 13.231148779392244 5.1103744059801128 4.7564818263053876 9.2713339924812299 422.48217938840389 5.4793877303600302 5.7950394153594971 8.330362066626547 9.7566063404083234 5.4264807105064383 6.5683699846267691 5.008777141571044 4.8110229969024649 6.8962022662162772 10.027275323867796 4.9768843203783026 6.0959694534540168 8.8691497594118101 5.8081745058298111 5.6121777892112723 7.874004289507865 5.6391999423503867 5.7638864666223517 40.930635169148445 4.6248438507318479 5.8101339638233185 131.14686343073845 5.8338437378406516 4.6130205988883963
leaf_count=22 69 45 20 20 33 1825 19 20 33 37 20 23 20 20 28 42 20 25 38 24 23 28 20 20 175 20 25 446 20 20
internal_value=0 -0.0678409 0.191197 -0.0770154 0.0245982 -0.0804505 0.019867 0.103873 -0.0853127 -0.0418566 0.213425 0.218114 -0.0621952 -0.070827 -0.092345 -0.0594729 -0.0836779 -0.0935736 -0.0389929 -0.0024569 -0.0946291 0.222499 0.207432 0.224966 -0.0928364 -0.0954884 -0.0775295 0.22644 0.216926 -0.0959272
internal_weight=0 585.056 207.356 566.186 24.409 555.635 25.6857 10.5515 529.949 73.8143 182.947 177.521 64.0577 59.0489 456.135 15.1376 50.7185 449.238 20.2063 11.3372 443.142 170.952 18.8703 163.078 45.7417 437.53 10.435 157.314 26.1675 427.095
internal_count=3200 2479 721 2414 95 2374 103 40 2271 305 626 606 268 248 1966 62 215 1938 84 46 1913 583 65 555 195 1890 45 535 89 1845
is_linear=0
shrinkage=0.1


Tree=7
num_leaves=31
num_cat=0
split_feature=25 28 177 26 766 24 25 646 595 705 566 758 728 397 24 379 333 23 734 28 272 407 733 25 24 19 674 353 373 570
split_gain=998.985 203.434 102.357 52.2117 49.4362 42.7494 26.9686 13.4084 14.9507 67.8489 11.0021 9.37099 7.44928 4.96679 4.56572 17.7635 2.50275 1.42226 0.303069 0.26513 0.562342 0.177422 0.161938 0.147745 0.135979 0.0718646 0.049797 0.0237937 0.0202007 0.012045
threshold=0.045433044433593757 0.010864257812500002 1.0000000180025095e-35 0.0041427612304687509 0.038200378417968757 0.56111145019531261 0.29756164550781256 9.9182128906250014e-05 1.0000000180025095e-35 0.0018997192382812502 0.0044860839843750009 0.0056915283203125009 1.0000000180025095e-35 0.00046539306640625005 0.11190795898437501 0.00022125244140625003 0.019042968750000003 0.24523925781250003 0.0010452270507812502 0.021934509277343753 0.00066375732421875011 0.016647338867187503 0.012283325195312502 0.49354553222656256 0.45484924316406256 0.030113220214843753 0.0083007812500000017 8.3923339843750014e-05 0.00014495849609375003 0.010398864746093752
decision_type=2 2 2 2 2 2 2 2 2 2 2 2 2 2 2 2 2 2 2 2 2 2 2 2 2 2 2 2 2 2
left_child=2 3 10 -2 5 7 11 8 9 13 14 17 -11 -5 16 -16 19 -3 -14 -1 -21 -17 26 24 25 27 -20 -9 -10 -30
right_child=1 6 -4 4 -6 -7 -8 23 28 12 -12 -13 18 -15 15 21 -18 -19 22 20 -22 -23 -24 -25 -26 -27 -28 -29 29 -31
leaf_value=-0.096627904549295873 -0.08522625006442161 -0.097264690445821214 0.21704957740724243 0.017549969294994815 -0.097465518123837497 -0.053371867176627966 0.15395990605045143 0.23287301059202128 0.23441038990414304 0.11453836247959633 0.054335337144832851 0.056027600199168907 0.21314148308500408 -0.10275109644011592 0.11596238660386327 -0.097634942301608102 -0.043270062841731717 -0.040318624129130176 0.23920767102550744 -0.097192346123096351 -0.05439169035362737 -0.075501427505133556 0.25300720052991732 0.21285006478345658 0.24314652500193057 0.23826197227234727 0.22908264735602329 0.22736003703279473 0.23180335309026867 0.22707430976599452
leaf_weight=440.89931884407997 6.8793557137250891 30.520826771855354 11.001314580440519 6.4938332289457303 5.6658247560262671 6.3916963189840308 6.1335789859294882 8.4377430677413923 7.2498435080051413 6.3163512647151938 5.1300660073757163 5.0853214561939231 5.8532172143459347 7.2785547524690628 5.0641593635082272 16.312411025166515 9.1111331731080991 5.1218399554491034 9.4619661867618614 8.9115072935819608 4.6827932447195044 4.6551947444677344 5.8331683278083792 5.857214778661727 6.5326122343540183 6.8976817131042472 9.9818454682826978 108.46048530936241 7.5844948589801815 18.580246418714523
leaf_count=1905 28 130 38 24 24 26 22 29 25 23 20 20 20 28 20 69 38 21 33 38 20 20 21 20 23 24 34 368 26 63
internal_value=0 0.149039 -0.0846407 0.186285 0.194306 0.201582 -0.0415236 0.208961 0.177703 0.143755 -0.0913489 -0.0709631 0.213555 -0.0460278 -0.0928753 -0.0521241 -0.0951635 -0.0890816 0.233646 -0.0962038 -0.0824489 -0.0927209 0.238394 0.228387 0.229085 0.228343 0.23401 0.227758 0.229739 0.228445
internal_weight=0 286.618 505.768 239.756 232.877 227.211 46.8616 220.819 84.6335 51.2189 494.767 40.728 37.4465 13.7724 489.637 26.0318 463.605 35.6427 31.1302 454.494 13.5943 20.9676 25.277 136.186 130.329 123.796 19.4438 116.898 33.4146 26.1647
internal_count=3200 1032 2168 839 811 787 193 761 297 183 2130 171 131 52 2110 109 2001 151 108 1963 58 89 88 464 444 421 67 397 114 89
is_linear=0
shrinkage=0.1


Tree=8
num_leaves=31
num_cat=0
split_feature=20 21 29 26 22 767 19 301 45 26 19 25 269 325 276 276 26 295 19 27 29 511 498 395 281 759 407 21 270 19
split_gain=363.99 175.774 104.174 100.622 57.5935 54.3857 33.9631 25.3126 24.3538 24.1828 15.9351 15.6697 14.866 11.6337 8.25613 10.0753 10.5655 8.20414 6.96819 4.0724 8.80381 4.02252 6.68725 3.61364 3.39956 3.27077 1.87647 1.77363 5.03193 4.27279
threshold=0.11570739746093751 0.32481384277343756 0.026695251464843753 0.014472961425781252 0.043281555175781257 0.59634399414062511 0.22257232666015628 0.00051116943359375011 5.3405761718750007e-05 0.00019073486328125003 0.20829772949218753 0.026542663574218753 0.00032806396484375005 0.0011672973632812502 0.0010147094726562502 0.00029754638671875005 0.11956024169921876 0.00074005126953125011 0.50639343261718761 0.032646179199218757 0.00032806396484375005 0.60542297363281261 0.0040969848632812509 1.0000000180025095e-35 0.0033874511718750004 5.3405761718750007e-05 0.00017547607421875003 0.067619323730468764 9.9182128906250014e-05 0.13957214355468753
decision_type=2 2 2 2 2 2 2 2 2 2 2 2 2 2 2 2 2 2 2 2 2 2 2 2 2 2 2 2 2 2
left_child=1 2 5 4 7 10 12 -2 9 -4 19 13 -5 18 15 16 26 -10 23 21 -21 27 -23 -6 -16 -7 -11 -1 29 -29
right_child=3 -3 8 6 11 25 -8 -9 17 14 -12 -13 -14 -15 24 -17 -18 -19 -20 20 -22 22 -24 -25 -26 -27 -28 28 -30 -31
leaf_value=-0.093047046312955989 -0.095189851719824164 0.17981122584618545 0.16686693274138156 -0.091818315554334201 0.12359767720874484 0.076236053423677452 0.16022140395755646 0.15071179345175803 0.18281626463650269 -0.1017432992869438 0.044623288941334216 0.0063661078822176073 0.070175738263174595 0.034363424569220695 -0.097637916508374875 0.1087104096078956 0.092283959874907728 0.060597986810044517 0.067783835050350613 -0.094658490389950639 0.070294295481824934 0.055463937516040486 -0.095012965369214608 0.18100028961706993 -5.9131633101611704e-05 0.17983151242975276 -0.024472690694588468 -0.092080461494930377 0.021737930054404882 0.0073535934737298421
leaf_weight=330.14559404551983 13.852650910615923 32.861072838306427 8.4659183621406537 32.038509458303452 11.973860710859297 5.8334337174892408 8.2475551068782789 5.9989689737558356 13.995944753289224 8.1265998482704216 9.4657654613256437 6.4069825112819663 6.8817869871854773 6.4393671602010718 12.800438001751901 8.3475499898195249 5.5695476979017249 9.0398702174425107 6.1891498863697043 8.6966133564710599 5.1526024192571631 5.0979098528623563 7.0202468484640121 130.40083447098732 4.9514437615871421 6.3818890750408173 5.1245744675397864 48.088111713528633 5.0079022347927085 4.7482860982418051
leaf_count=1555 63 103 28 146 39 20 27 20 46 32 36 25 26 24 55 31 21 34 22 40 20 20 32 410 20 21 20 223 21 20
internal_value=0 -0.0443857 -0.0587733 0.105994 0.139851 -0.0776648 -0.0241129 -0.0208807 0.0489162 0.0118343 -0.0836661 0.159619 -0.0631749 0.165954 -0.0173841 0.0172704 -0.023286 0.134855 0.171657 -0.0865996 -0.0332878 -0.0884449 -0.0317098 0.176173 -0.0704208 0.130359 -0.0718607 -0.090217 -0.0740643 -0.0831446
internal_weight=0 544.921 512.06 228.43 181.262 435.638 47.1679 19.8516 76.4219 53.3861 423.423 161.41 38.9203 155.003 44.9202 27.1683 18.8207 23.0358 148.564 413.957 13.8492 400.108 12.1182 142.375 17.7519 12.2153 13.2512 387.99 57.8443 52.8364
internal_count=3200 2398 2295 802 603 2008 199 83 287 207 1967 520 172 495 179 104 73 80 471 1931 60 1871 52 449 75 41 52 1819 264 243
is_linear=0
shrinkage=0.1


Tree=9
num_leaves=31
num_cat=0
split_feature=301 362 22 334 21 24 19 23 670 17 16 281 288 22 31 32 284 19 24 28 19 766 399 300 332 20 29 25 667 546
split_gain=274.555 94.9097 63.4791 61.8119 43.7985 40.85 39.9418 39.0148 36.1768 31.8266 53.3605 27.3764 25.6091 21.0068 19.0951 17.5507 31.4043 17.3138 14.2624 11.192 14.7604 10.7344 9.35499 7.63508 6.91119 15.6691 6.58156 6.56493 5.26651 4.69744
threshold=0.0018539428710937502 0.00051116943359375011 0.41104888916015631 0.00089263916015625011 0.18669891357421878 0.43831634521484381 0.52679443359375011 0.24096679687500003 9.9182128906250014e-05 0.32865905761718756 0.065048217773437514 0.00026702880859375005 0.0031738281250000004 0.018241882324218753 0.0060043334960937509 0.0044479370117187509 0.00014495849609375003 9.9182128906250014e-05 0.43831634521484381 0.0075378417968750009 0.097976684570312514 0.015594482421875002 9.9182128906250014e-05 0.0011367797851562502 0.00078582763671875011 0.13201904296875003 0.083656311035156264 0.51531982421875011 0.024391174316406253 0.021858215332031253
decision_type=2 2 2 2 2 2 2 2 2 2 2 2 2 2 2 2 2 2 2 2 2 2 2 2 2 2 2 2 2 2
left_child=2 17 3 5 8 6 9 -7 12 14 -11 -6 15 -3 24 16 18 21 19 20 -5 26 -21 -17 27 -26 -2 29 -10 -1
right_child=1 13 -4 4 11 7 -8 -9 28 10 -12 -13 -14 -15 -16 23 -18 -19 -20 22 -22 -23 -24 -25 25 -27 -28 -29 -30 -31
leaf_value=-0.084477662457913466 0.16095466815252951 0.0231479867119825 0.17294964075643762 -0.059047750659446833 0.1834932314940334 0.19331798097065414 0.12891650787006176 -0.069008203721321534 -0.086551928482919815 0.17915219685987507 -0.083264997359474832 -0.029988172506619212 0.19650152408076207 0.18422022821667758 0.097261781075409115 0.18996565238174223 -0.076855803784835336 -0.081391816955379503 0.19058994168999449 0.030521496523333153 0.10702920334232291 -0.052847065941232209 0.19496345917521846 0.033846282004461346 -0.079984190784773299 0.12023360288468841 0.019853034756391275 0.027891038193764636 0.023520640910871395 0.019981224482525681
leaf_weight=329.82269108295441 8.0536540597677249 8.8121009171009046 15.26146414875984 18.645804226398472 21.978240117430691 12.639403671026232 10.718446105718611 10.281280443072317 45.46872267127037 13.589329898357393 18.02944304049015 8.2662907242774946 8.2524446696042997 99.75984650850296 6.3179371207952491 7.1814738065004331 34.412456929683685 18.445636227726936 6.1800867170095435 8.3353691101074201 7.5057610571384421 6.5284800976514807 5.9141736775636664 5.5561687350273132 12.691650196909906 5.6482957750558844 5.6072825044393531 5.4140562564134589 4.8062234967946997 4.3619080036878577
leaf_count=1519 28 35 49 82 71 40 36 44 207 43 83 33 27 316 23 24 149 80 21 33 28 27 21 20 57 21 21 22 20 20
internal_value=0 0.123248 -0.0285011 -0.0335245 0.0152292 -0.0542402 -0.0615624 0.0756492 -0.00660448 -0.0667197 0.0295184 0.125146 0.0276198 0.171147 -0.0750735 0.0127508 -0.00440943 -0.011356 0.0491113 0.0274695 -0.011382 0.0526307 0.098772 0.121866 -0.0781154 -0.0183216 0.103038 -0.0813445 -0.0760291 -0.0831142
internal_weight=0 147.207 627.279 612.018 182.503 429.514 406.594 22.9207 152.259 395.875 31.6188 30.2445 101.984 108.572 364.257 93.7313 80.9937 38.6351 46.5812 40.4011 26.1516 20.1894 14.2495 12.7376 357.939 18.3399 13.6609 339.599 50.2749 334.185
internal_count=3200 507 2693 2644 736 1908 1824 84 632 1788 126 104 405 351 1662 378 334 156 185 164 110 76 54 44 1639 78 49 1561 227 1539
is_linear=0
shrinkage=0.1


Tree=10
num_leaves=31
num_cat=0
split_feature=16 18 24 766 23 19 284 18 29 18 316 20 327 323 766 399 304 23 17 372 767 581 18 746 301 16 16 19 487 675
split_gain=783.662 117.935 52.4273 30.4144 24.627 24.7164 22.0472 16.2976 15.3642 16.8684 9.6435 6.33086 5.26533 5.94667 4.29553 4.00666 3.64599 3.56421 6.49143 3.06039 6.323 2.27087 1.65584 0.839474 0.78717 0.736046 0.594535 0.285127 0.225987 0.223773
threshold=0.044540405273437507 0.35594177246093756 0.032318115234375007 0.27388000488281256 2.2888183593750003e-05 0.25308227539062506 1.0000000180025095e-35 0.00016021728515625003 0.015029907226562502 5.3405761718750007e-05 0.0017776489257812502 0.10427093505859376 0.00011444091796875001 0.010032653808593752 0.22163391113281253 0.00023651123046875003 0.00016021728515625003 0.0057983398437500009 0.00076293945312500011 1.0000000180025095e-35 0.85569000244140636 0.00022125244140625003 0.43627929687500006 0.074760437011718764 0.00025177001953125005 0.032211303710937507 0.063232421875000014 0.14638519287109378 0.026451110839843753 0.086647033691406264
decision_type=2 2 2 2 2 2 2 2 2 2 2 2 2 2 2 2 2 2 2 2 2 2 2 2 2 2 2 2 2 2
left_child=1 3 10 4 5 19 15 -5 14 12 11 21 -10 16 17 -4 -14 18 -6 20 -1 26 -3 25 -18 28 -2 -28 29 -19
right_child=2 22 6 7 8 -7 -8 -9 9 -11 -12 -13 13 -15 -16 -17 24 23 -20 -21 -22 -23 -24 -25 -26 -27 27 -29 -30 -31
leaf_value=0.071889344782488415 0.15984926988705064 0.1350406639150826 0.013193847390403489 -0.051928253063013796 -0.093563453062972132 0.19716187378760952 0.13520879542231712 0.19665227156950657 0.027667171482196946 0.080087261091782186 0.046778542967201985 0.085033243056304358 -0.00029241435297501555 0.019454732496233383 -0.010301785311128044 -0.096046417326221212 -0.050783396648426106 -0.093566686789534198 0.057434165785826601 -0.082015818605746957 -0.078203903042752987 0.12134496421331711 0.19361992303384759 -0.048397305049309419 -0.095098151466064318 -0.053281882265413173 0.18639084493448377 0.16569674427620826 -0.070128462622133278 -0.070577345279540835
leaf_weight=5.7267370820045524 9.5034597814083082 7.8035906851291683 5.1878793984651592 4.5441356003284437 7.6244774460792524 5.9620937407016745 9.95600378513336 6.2858908772468567 6.3053764253854743 10.193270832300184 5.7066861391067496 6.9584176540374747 5.0004497021436682 6.6973214447498313 6.7883726805448523 9.5163025557994825 4.4725501686334601 384.2165882140398 4.5438044220209122 8.2045507878065091 5.5045905262231827 5.9390108287334433 12.643522918224333 4.3451209813356391 38.625756874680519 4.7069199085235587 163.60291603207588 6.9404787421226493 4.2500953823328009 4.2812066227197638
leaf_count=22 30 25 20 20 36 19 33 20 26 37 20 23 20 27 28 42 20 1801 20 38 24 20 40 20 175 21 511 22 20 20
internal_value=0 -0.0643826 0.157821 -0.0735033 -0.0769746 0.019049 0.0202991 0.0923512 -0.081931 -0.0390034 0.174892 0.178682 -0.0588707 -0.0688286 -0.0892048 -0.0575046 -0.0811213 -0.0904987 -0.0371789 -0.0355884 -0.00167292 0.182185 0.171263 -0.0921134 -0.0904994 -0.0925913 0.184192 0.185549 -0.0930625 -0.0933133
internal_weight=0 548.726 223.311 528.279 517.449 25.398 24.6602 10.83 492.051 71.2947 198.651 192.944 61.1015 54.7961 420.757 14.7042 48.0988 413.968 12.1683 19.4359 11.2313 185.986 20.4471 401.8 43.0983 397.455 180.047 170.543 392.748 388.498
internal_count=3200 2479 721 2414 2374 103 95 40 2271 305 626 606 268 242 1966 62 215 1938 56 84 46 583 65 1882 195 1862 563 533 1841 1821
is_linear=0
shrinkage=0.1


Tree=11
num_leaves=31
num_cat=0
split_feature=25 28 177 26 766 746 24 296 565 319 306 24 24 377 362 330 345 333 345 31 28 300 422 283 362 654 685 24 718 478
split_gain=788.947 144.14 83.6766 37.0876 35.5185 22.2326 20.7393 27.0336 11.6927 9.07738 5.84931 10.3513 4.5015 15.4605 4.17719 12.0387 2.71264 2.50632 1.7054 0.979505 0.257552 0.587173 0.186629 0.112606 0.0771376 0.0556457 0.0469611 0.033938 0.0198436 0.0173199
threshold=0.045433044433593757 0.010864257812500002 1.0000000180025095e-35 0.0039443969726562509 0.038200378417968757 0.0079421997070312517 0.46218109130859381 1.0000000180025095e-35 0.0079269409179687517 0.0031356811523437504 0.00067901611328125011 0.14238739013671878 0.11190795898437501 0.00055694580078125011 0.0078201293945312517 0.00058746337890625011 0.010826110839843752 0.019042968750000003 1.0000000180025095e-35 5.3405761718750007e-05 0.021934509277343753 0.0014419555664062502 0.014739990234375002 0.0053176879882812509 3.8146972656250007e-05 0.00022888183593750003 0.010635375976562502 0.14600372314453128 0.0015792846679687502 0.00067901611328125011
decision_type=2 2 2 2 2 2 2 2 2 2 2 2 2 2 2 2 2 2 2 2 2 2 2 2 2 2 2 2 2 2
left_child=2 3 8 -2 6 10 9 -8 12 14 -3 -12 17 -14 18 -16 25 20 -5 23 -1 -22 -15 24 -20 -17 27 29 -28 -26
right_child=1 5 -4 4 -6 -7 7 -9 -10 -11 11 -13 13 22 15 16 -18 -19 19 -21 21 -23 -24 -25 26 -27 28 -29 -30 -31
leaf_value=-0.093793505674322972 -0.096848333120126834 -0.096285007797538208 0.17986534880415364 0.14477083650181438 -0.095214323789810401 0.14072677310894657 -0.071746219431528244 0.16777556856249995 0.071217576642635866 0.048957851481097971 -0.094615772954060692 0.074033735665831962 0.10321618620914455 -0.094848808884935132 0.011769330814986332 0.19793878586609825 0.11380996059915344 -0.039203359865834682 0.19819945335505501 0.14935005503646903 -0.09494854765136003 -0.049897996907570324 -0.071273156124467621 0.17401791089314969 0.18795321386303454 0.18671614938286799 0.19527796387603749 0.18589350919078604 0.18913429720296832 0.19496309862643102
leaf_weight=406.50054706633091 5.7316235452890387 24.544170469045639 11.944253057241438 10.871128812432287 5.3205399662256232 5.968954771757125 8.1675577014684695 11.137841731309889 4.5522366464138022 5.6246004551649085 7.848164886236189 6.7863226383924484 5.2892292737960842 15.122782170772554 5.6562883704900768 6.5779746174812379 6.011827513575553 8.725247919559477 6.5726545453071585 7.1681376844644538 8.3738053292036039 4.420317366719245 4.316089838743209 6.3541472852230063 7.9922376275062543 13.456073969602583 8.193802475929262 121.28434076905251 14.669804811477659 6.3055813312530518
leaf_count=1908 25 109 38 35 24 21 36 36 17 20 36 27 20 69 20 21 20 38 21 24 38 20 20 20 25 42 26 378 46 20
internal_value=0 0.125737 -0.0814252 0.154676 0.160411 -0.0390583 0.165939 0.0664408 -0.0882499 0.17441 -0.0664489 -0.0164094 -0.0898533 -0.0483687 0.177602 0.144005 0.172722 -0.09225 0.183225 0.185566 -0.0933538 -0.0793838 -0.0896142 0.187081 0.187584 0.190401 0.187144 0.186437 0.191336 0.191045
internal_weight=0 302.244 469.245 257.096 251.365 45.1476 246.044 19.3054 457.3 226.739 39.1787 14.6345 452.748 24.7281 221.114 31.7022 26.0459 428.02 189.412 178.541 419.295 12.7941 19.4389 171.373 165.018 20.034 158.446 135.582 22.8636 14.2978
internal_count=3200 1032 2168 839 814 193 790 72 2130 718 172 63 2113 109 698 103 83 2004 595 560 1966 58 89 536 516 63 495 423 72 45
is_linear=0
shrinkage=0.1


Tree=12
num_leaves=31
num_cat=0
split_feature=21 26 31 19 22 25 23 759 296 272 304 22 317 25 19 265 767 26 319 271 327 344 269 767 29 333 505 511 366 26
split_gain=292.318 174.552 107.131 36.0758 37.8041 28.3934 27.8945 25.8593 23.0745 21.6014 26.9271 21.1443 28.69 15.7577 15.7238 12.4178 12.3591 10.1879 9.92071 8.57701 7.61433 4.58392 4.51036 4.22267 2.7706 2.74255 2.14939 1.58364 1.37371 1.12583
threshold=0.066482543945312514 0.013267517089843752 0.00066375732421875011 0.52679443359375011 0.41104888916015631 0.045433044433593757 0.024703979492187503 0.0030441284179687504 0.00064849853515625011 0.00028228759765625005 0.00061798095703125011 0.041671752929687507 0.00037384033203125005 0.00038909912109375005 0.25736999511718756 0.00040435791015625005 0.53775024414062511 0.0023880004882812504 0.00070953369140625011 0.0048828125000000009 0.0012435913085937502 0.019691467285156253 0.00064849853515625011 0.33623504638671881 0.0096664428710937517 1.0000000180025095e-35 0.014755249023437502 0.60542297363281261 0.036354064941406257 0.039215087890625007
decision_type=2 2 2 2 2 2 2 2 2 2 2 2 2 2 2 2 2 2 2 2 2 2 2 2 2 2 2 2 2 2
left_child=2 3 14 4 5 11 -3 8 15 25 -11 12 -2 22 16 17 24 -4 -19 21 23 -15 -10 26 27 -8 28 -1 -13 -17
right_child=1 6 7 -5 -6 -7 9 -9 13 10 -12 20 -14 19 -16 29 -18 18 -20 -21 -22 -23 -24 -25 -26 -27 -28 -29 -30 -31
leaf_value=-0.090668125890870838 -0.077032777640368255 0.16473081483426455 0.15732757763642768 -0.085411143138937565 -0.082726777523573297 -0.057242560052798999 -0.023909270968878748 -0.088239800091599221 0.1427634681985778 0.16176574745014938 -0.087940015894631088 0.15928260146588313 0.18960194096520014 -0.091401962333530026 0.10644237464797748 0.13694365300987724 0.090274885177343264 0.084541257786502233 -0.10016532375072645 0.079246958394584857 0.033379514211060043 0.017961063143139454 0.035374448329414547 0.078481298087716533 -0.011484212464528611 -0.087471649186351433 0.097928539666971806 -0.044880607643066332 0.11240174823117777 0.18330544441636107
leaf_weight=299.15258269011974 9.8961275666952151 6.0549801737070075 6.0013867616653469 8.4870681762695295 8.4636880010366422 7.5940476506948462 7.5761012583971015 14.063725724816321 7.5289651155471793 9.1090994477272051 8.2113819420337659 166.76459003984928 6.8142565935850135 16.777708530426032 4.2976199090480796 8.8452141582965869 3.9220474958419791 6.1341230273246747 5.5288525372743607 4.9651566892862311 5.5354062020778647 4.9673345237970343 8.1389136612415296 7.4237738847732535 4.6191683709621421 65.271474108099937 6.2705783396959296 7.7494318485260001 6.4937219321727744 12.843208849430082
leaf_count=1538 45 19 19 38 41 34 33 66 24 32 34 508 23 74 14 30 14 23 23 20 20 20 28 25 21 318 21 35 20 40
internal_value=0 0.0703172 -0.0557533 0.116983 0.124609 0.132703 -0.0430424 0.0370111 0.0585635 -0.0569948 0.043384 0.139598 0.0316971 0.00736106 -0.0835456 0.113702 -0.086134 0.0514579 -0.0030192 -0.0393416 0.148965 -0.0664196 0.0869786 0.152388 -0.088355 -0.0808612 0.155444 -0.089512 0.157526 0.164398
internal_weight=0 329.966 415.535 233.743 225.256 216.793 96.223 95.7946 81.7309 90.1681 17.3205 209.198 16.7104 42.3781 319.741 39.3528 315.443 17.6644 11.663 26.7102 192.488 21.745 15.6679 186.953 311.521 72.8476 179.529 306.902 173.258 21.6884
internal_count=3200 1211 1989 775 737 696 436 367 301 417 66 662 68 166 1622 135 1608 65 46 114 594 94 52 574 1594 351 549 1573 528 70
is_linear=0
shrinkage=0.1


Tree=13
num_leaves=31
num_cat=0
split_feature=303 367 15 632 338 302 20 22 291 725 643 18 21 279 300 22 27 26 31 30 312 260 19 363 631 633 721 505 257 261
split_gain=218.065 69.0317 54.003 40.4384 39.8023 42.5453 35.0865 24.3308 23.5589 28.3118 23.3039 22.9502 28.7155 19.4243 20.3627 18.1929 18.1258 14.6624 14.0533 13.4587 13.1278 10.7868 10.4691 9.84046 9.28345 8.53253 7.83763 6.63081 6.61401 6.58774
threshold=0.0016098022460937502 0.00046539306640625005 3.8146972656250007e-05 0.00014495849609375003 0.00080108642578125011 2.2888183593750003e-05 0.23245239257812503 0.018241882324218753 0.0016098022460937502 0.0013198852539062502 0.031455993652343757 0.36553955078125006 0.32481384277343756 2.2888183593750003e-05 0.00064849853515625011 1.0000000180025095e-35 3.8146972656250007e-05 0.11132049560546876 0.0030593872070312504 0.012603759765625002 0.0024032592773437504 0.0018844604492187502 0.34882354736328131 0.00055694580078125011 0.039573669433593757 0.022483825683593753 0.025665283203125003 0.046905517578125007 0.0014114379882812502 0.0010910034179687502
decision_type=2 2 2 2 2 2 2 2 2 2 2 2 2 2 2 2 2 2 2 2 2 2 2 2 2 2 2 2 2 2
left_child=2 15 3 4 5 6 11 -3 9 13 24 12 16 17 -15 21 -1 19 22 -6 27 28 -7 -18 -5 -12 -11 -4 -2 -16
right_child=1 7 20 10 8 18 -8 -9 -10 26 25 -13 -14 14 29 -17 23 -19 -20 -21 -22 -23 -24 -25 -26 -27 -28 -29 -30 -31
leaf_value=0.145081206414719 0.08756131266498339 -0.017672407087497028 -0.083520108317949079 -0.088768638153286478 0.1614363204613348 -0.081332524707142015 -0.074272480157991691 0.15648249778024781 0.16958727745558086 -0.07740488008140721 -0.020283503293917534 -0.091132620961072608 -0.091803835164895417 -0.067896134589714663 0.035763923574324438 -0.067759913054611834 -0.079099609007968488 -0.023683211196567275 0.070540878685878383 0.003220254845599649 0.055996996150707426 0.16112174407951863 0.078466840752188752 0.089187954610119635 0.048738149258968688 0.16173364775604138 0.04970619231446978 0.043788031704742679 -0.066403597683940649 0.1630798219006877
leaf_weight=40.777729690074921 5.1888346672058123 8.6598533540964109 160.95445147156715 82.90922050178051 31.997102349996567 89.629970923066139 24.322237819433212 108.91981104016304 15.452254727482794 21.70301312208176 4.7752405405044538 8.3262887597084028 7.9697479605674735 16.678752407431602 9.8839810490608233 22.407475903630257 6.3268037438392621 6.8771033585071555 7.2430249750614157 6.4624104499816886 7.3844216465950003 7.2711753845214835 4.2962738871574393 7.7076638340950012 5.2188226431608191 5.5907166302204132 6.247161090373992 4.1979362815618506 6.035459041595459 6.9022980630397788
leaf_count=134 20 38 792 414 103 438 116 336 49 101 21 43 40 73 39 99 30 31 27 25 29 25 17 29 22 19 24 19 25 22
internal_value=0 0.104729 -0.0273942 -0.00793784 0.00936498 -0.0184926 0.0294051 0.143656 0.0541818 0.0374769 -0.0639433 0.0648675 0.0855566 0.0681474 0.0103598 -0.00716866 0.111345 0.110803 -0.0636734 0.134851 -0.0744514 0.0662384 -0.0740232 0.0133231 -0.0806257 0.0778846 -0.0489942 -0.0802841 0.00477224 0.0881146
internal_weight=0 158.483 589.835 417.298 318.804 196.6 95.4305 117.58 122.204 106.752 98.494 71.1082 62.7819 78.8016 33.465 40.9029 54.8122 45.3366 101.169 38.4595 172.537 18.4955 93.9262 14.0345 88.128 10.366 27.9502 165.152 11.2243 16.7863
internal_count=3200 543 2657 1817 1341 874 392 374 467 418 476 276 233 293 134 169 193 159 482 128 840 70 455 59 436 40 125 811 45 61
is_linear=0
shrinkage=0.1


Tree=14
num_leaves=31
num_cat=0
split_feature=16 18 320 567 766 23 19 28 19 18 303 21 766 18 298 130 6 30 365 18 24 445 16 670 366 493 393 354 593 445
split_gain=615.233 96.2273 41.0126 30.4124 26.6171 22.3005 19.4184 14.7776 18.7296 12.4924 5.84132 5.02368 4.64424 4.46239 4.22585 4.31853 3.56434 3.43299 2.78124 2.57986 2.07725 1.43572 1.39372 0.848167 0.503153 0.495357 0.407818 1.74089 0.32064 0.259682
threshold=0.044540405273437507 0.35594177246093756 0.0020370483398437504 3.0517578125000007e-05 0.27388000488281256 2.2888183593750003e-05 0.25308227539062506 0.025909423828125003 0.00017547607421875003 0.00016021728515625003 0.0029220581054687504 0.010902404785156252 0.22163391113281253 0.20413208007812503 0.025413513183593753 1.0000000180025095e-35 0.016502380371093753 0.47870635986328131 2.2888183593750003e-05 0.32863616943359381 0.041831970214843757 0.00014495849609375003 0.00023651123046875003 0.079544067382812514 0.0015029907226562502 0.011299133300781252 0.038970947265625007 0.00035858154296875005 0.0087356567382812517 0.042579650878906257
decision_type=2 2 2 2 2 2 2 2 2 2 2 2 2 2 2 2 2 2 2 2 2 2 2 2 2 2 2 2 2 2
left_child=1 4 3 10 5 6 18 12 11 -6 13 17 14 20 15 16 19 -9 -1 23 25 -4 -3 26 -20 28 29 -28 -2 -7
right_child=2 22 21 -5 9 7 -8 8 -10 -11 -12 -13 -14 -15 -16 -17 -18 -19 24 -21 -22 -23 -24 -25 -26 -27 27 -29 -30 -31
leaf_value=0.0056693548817386029 0.15914965926902735 0.16374938624583721 -0.023681042343536692 -0.071967922731754522 -0.047724881188152185 -0.091598380623688094 0.17163355514680176 -0.089344824316150484 0.12295489337937074 0.17156273643574971 0.056063727336137625 0.026504903549621452 -0.0074472109234013824 0.087785237845858177 0.0076926997770965363 0.0091182116173689973 0.007212076402833347 0.0017135765630980086 -0.092696945167496783 -0.018971421126323201 0.098737293240735047 -0.099198699894335426 0.10790982580620873 -0.044829036963017439 -0.045835583494319564 0.1361137653494863 -0.017890222674612714 -0.091436041735013962 0.18187842949946906 -0.065656571838497838
leaf_weight=9.4284505844116264 176.46837273240089 14.875810265541078 4.9804688543081266 6.3043969124555579 4.3069154322147352 359.92728666961193 6.2049334347248069 21.882157757878307 7.3641482740640631 6.5467907190322876 6.3062386065721503 6.3876940906047812 7.6749245375394812 9.7709000706672651 4.7608503401279441 4.6132216751575461 3.8774894177913657 5.1065115183591834 5.0677628070116025 5.1713431328535071 5.9334602802991858 5.0908407419919968 6.3898046016693106 4.0998806506395331 4.1820152103900909 9.1556623578071576 4.0266771763563183 16.036143377423286 6.4330434501171103 3.9005261510610572
leaf_count=39 533 45 20 25 20 1834 19 104 27 20 22 27 32 31 21 20 18 23 25 23 20 22 20 20 20 28 20 82 20 20
internal_value=0 -0.061284 0.135485 0.144504 -0.0703117 -0.0738154 0.0183649 -0.0788585 -0.0213926 0.0845461 0.150879 -0.0532413 -0.0845123 0.153757 -0.0859677 -0.0870779 -0.0881956 -0.0721157 -0.0325512 -0.0891365 0.157012 -0.0618537 0.146971 -0.0900717 -0.07151 0.158813 -0.0905549 -0.0766751 0.159949 -0.0913203
internal_weight=0 511.831 230.443 220.372 490.566 479.712 24.8832 454.829 40.7405 10.8537 214.068 33.3764 414.088 207.761 406.413 401.653 397.039 26.9887 18.6782 393.162 197.991 10.0713 21.2656 387.991 9.24978 192.057 383.891 20.0628 182.901 363.828
internal_count=3200 2479 721 679 2414 2374 103 2271 181 40 654 154 2090 632 2058 2037 2017 127 84 1999 601 42 65 1976 45 581 1956 102 553 1854
is_linear=0
shrinkage=0.1


Tree=15
num_leaves=31
num_cat=0
split_feature=25 28 176 765 26 747 24 22 297 562 31 27 329 25 306 24 354 367 22 120 320 15 27 491 380 638 27 6 317 20
split_gain=637.999 113.259 62.6851 29.1822 25.3125 20.566 15.5362 22.3779 12.739 8.79702 4.89287 4.97287 4.87522 6.60198 4.30154 8.07492 3.70532 2.36149 0.494631 0.353797 0.56242 0.259138 0.270407 0.240383 0.0747764 0.0443933 0.02819 0.0225049 0.0218365 0.0112481
threshold=0.041633605957031257 0.010864257812500002 1.0000000180025095e-35 0.014816284179687502 0.0039443969726562509 0.0060577392578125009 0.48526763916015631 0.0046615600585937509 0.0030746459960937504 0.011688232421875002 0.00011444091796875001 1.0000000180025095e-35 0.010856628417968752 0.0063552856445312509 0.00067901611328125011 0.14238739013671878 0.043289184570312507 1.0000000180025095e-35 0.31753540039062506 0.00023651123046875003 0.00048065185546875005 0.012855529785156252 3.8146972656250007e-05 0.012390136718750002 0.060722351074218757 9.9182128906250014e-05 0.00086212158203125011 3.8146972656250007e-05 0.0015487670898437502 0.047554016113281257
decision_type=2 2 2 2 2 2 2 2 2 2 2 2 2 2 2 2 2 2 2 2 2 2 2 2 2 2 2 2 2 2
left_child=2 3 9 4 -2 14 8 -8 10 12 11 -6 16 -14 -3 -16 19 -13 21 27 -21 22 -19 24 25 26 -24 -1 -28 -27
right_child=1 5 -4 -5 6 -7 7 -9 -10 -11 -12 17 13 -15 15 -17 -18 18 -20 20 -22 -23 23 -25 -26 29 28 -29 -30 -31
leaf_value=-0.091416421314312157 -0.094055273640631598 -0.093849585663429366 0.16116438771624786 -0.068070168529254738 0.081068144626207317 0.11558317064858703 -0.096991314040129659 0.17175692907129061 -0.009040648204662988 0.057882260154327805 0.079876466727153983 0.11246099732623671 -0.09364312697348523 0.06534824350699911 -0.092261089926916881 0.054311230664641531 -0.022906241839545316 0.139547137814475 0.13670458445328146 -0.043617204757724272 -0.092733283217713 0.17528040735798367 0.16781206997581602 0.14266190893613445 0.15034757884791158 0.15973841610725104 0.16098701198148219 -0.099085111569428286 0.16737003683435397 0.16398050902267203
leaf_weight=378.90916606783867 4.6356009244918814 23.417859181761742 10.486319333314894 7.0890078991651526 9.117493808269499 7.3450896739959708 6.4277877956628782 5.9815691858530045 5.1072757989168158 4.1832702010869971 9.4085535556077939 11.579266265034674 5.6896472573280317 4.8278533667325974 8.248655289411543 6.9051488786935797 8.1526128947734815 6.838268667459487 9.6241956204175931 4.0319955646991712 5.5274897962808609 10.403426527976988 11.822042018175123 7.8336690366268149 6.8796665966510764 114.5370035469532 28.850093841552734 3.8658407330512992 6.5824035406112662 6.611361861228942
leaf_count=1940 22 112 32 33 31 25 29 19 20 15 31 37 27 20 41 27 39 21 30 20 27 32 36 24 21 345 87 17 20 20
internal_value=0 0.107386 -0.0803006 0.132134 0.137547 -0.0377812 0.141714 0.032551 0.147239 -0.0863993 0.150563 0.153447 -0.0878678 -0.0206612 -0.0669859 -0.0254723 -0.0896327 0.156425 0.158849 -0.0910193 -0.0720171 0.159913 0.159071 0.159801 0.160566 0.160984 0.163584 -0.0914939 0.162173 0.15997
internal_weight=0 315.245 425.674 269.329 262.24 45.9168 257.604 12.4094 245.195 415.188 240.087 230.679 411.005 10.5175 38.5717 15.1538 400.487 221.561 209.982 392.334 9.55949 200.358 189.955 183.116 175.283 168.403 47.2545 382.775 35.4325 121.148
internal_count=3200 1063 2137 858 825 205 803 48 755 2105 735 704 2090 47 180 68 2043 673 636 2004 47 606 574 553 529 508 143 1957 107 365
is_linear=0
shrinkage=0.1


Tree=16
num_leaves=31
num_cat=0
split_feature=21 26 31 19 22 19 25 759 270 307 25 21 22 323 19 767 327 21 258 363 311 269 767 598 377 29 298 511 373 677
split_gain=239.303 136.606 93.5732 29.0391 29.3657 22.7802 21.572 21.5465 18.7319 18.0906 19.9355 17.6617 15.8386 23.5104 13.3905 12.74 6.66411 5.39268 4.70409 5.50575 4.1241 3.9923 3.41283 2.9649 2.63508 2.49813 1.9114 1.61196 1.36773 1.02612
threshold=0.066482543945312514 0.013267517089843752 0.00066375732421875011 0.52679443359375011 0.41104888916015631 0.22257232666015628 0.049514770507812507 0.0030441284179687504 0.00020599365234375003 0.00051116943359375011 0.00034332275390625005 0.16761016845703128 0.043281555175781257 0.00029754638671875005 0.25736999511718756 0.55948638916015636 0.0012435913085937502 0.0021591186523437504 0.0085601806640625017 0.0048675537109375009 0.00060272216796875011 0.00064849853515625011 0.33623504638671881 0.00049591064453125011 0.033821105957031257 0.0096664428710937517 0.00041961669921875005 0.60542297363281261 0.040763854980468757 0.036964416503906257
decision_type=2 2 2 2 2 2 2 2 2 2 2 2 2 2 2 2 2 2 2 2 2 2 2 2 2 2 2 2 2 2
left_child=2 3 14 4 6 8 12 9 24 17 21 20 13 -2 15 25 22 26 19 -12 -10 -11 23 28 -3 27 -4 -1 29 -14
right_child=1 5 7 -5 -6 -7 -8 -9 11 10 18 -13 16 -15 -16 -17 -18 -19 -20 -21 -22 -23 -24 -25 -26 -27 -28 -29 -30 -31
leaf_value=-0.088480029943864363 -0.092672988845632479 -0.085097886697470995 0.1519035162161454 -0.082901013137652385 -0.079734901710855385 0.12073627722463541 -0.063088225776723572 -0.085851930987191127 0.02561421761155613 0.13062281960404948 -0.095841871455328131 0.17237425417644794 0.1432459639238248 0.1402953581138032 0.092311818515835808 0.10457573962752507 0.025670166330463852 0.041178641791897459 0.036581377147767262 0.0030940115745392307 -0.097583141596685075 0.038111541212650438 0.06857306570370432 0.068337366653491161 0.0026693132141714596 -0.014255186320016225 0.087076452581565628 -0.041210602614851259 0.09599865706501215 0.10827111143064688
leaf_weight=272.02055637538433 8.1202681511640566 62.207135379314423 17.615557655692108 8.0280842781066877 7.8208566308021537 7.9903874099254599 6.4201950430870047 13.104669287800787 5.1580144762992877 11.712133526802065 14.334730863571172 6.1760820299386969 158.55228798091412 9.2847318798303586 4.3907843828201285 3.5515981763601294 5.8055462688207617 8.2172152996063215 6.9511563181877127 9.2572968304157239 5.7422168105840683 7.7525757402181616 7.5477079749107352 6.0413260906934729 3.6198689788579932 4.7716249972581855 6.1312165409326544 7.4108208566904059 6.910567730665206 8.8571027815341932
leaf_count=1539 41 329 55 38 41 25 31 66 20 36 66 21 480 30 14 12 21 30 28 39 25 26 25 20 16 22 21 35 21 27
internal_value=0 0.0634841 -0.0529609 0.103988 0.110646 -0.0405191 0.11749 0.0332096 -0.0560612 0.0522437 0.0146855 0.0372664 0.122982 0.0316044 -0.0810045 -0.0836491 0.131192 0.111004 -0.035718 -0.0570203 -0.0392859 0.0937766 0.134452 0.137209 -0.0802715 -0.0860012 0.135166 -0.0872264 0.139596 0.141396
internal_weight=0 324.282 387.222 233.389 225.361 90.8937 217.54 95.0766 82.9033 81.9719 50.0079 17.0763 211.12 17.405 292.145 287.755 193.715 31.964 30.5432 23.592 10.9002 19.4647 187.909 180.361 65.827 284.203 23.7468 279.431 174.32 167.409
internal_count=3200 1211 1989 775 737 436 696 367 411 301 195 66 665 71 1622 1608 594 106 133 105 45 62 573 548 345 1596 76 1574 528 507
is_linear=0
shrinkage=0.1


Tree=17
num_leaves=31
num_cat=0
split_feature=303 362 15 632 333 293 363 17 22 635 25 678 679 26 273 283 22 22 14 312 26 30 260 24 26 22 22 505 27 384
split_gain=173.457 54.3894 46.812 34.0742 32.5888 42.2424 29.4919 21.1725 25.917 20.3988 19.2301 17.7655 20.0513 14.64 20.1059 21.515 12.8815 12.4513 12.2423 11.3848 10.3559 9.04896 8.85872 8.35739 7.34308 6.94611 10.4224 6.43182 4.52288 4.46056
threshold=0.0016098022460937502 0.00045013427734375005 3.8146972656250007e-05 0.00014495849609375003 0.00066375732421875011 1.0000000180025095e-35 0.00034332275390625005 0.37950134277343756 0.41104888916015631 0.030838012695312503 0.11731719970703126 0.0058670043945312509 0.032302856445312507 0.0090408325195312517 2.2888183593750003e-05 0.00077056884765625011 1.0000000180025095e-35 0.097259521484375014 0.0022354125976562504 0.0024032592773437504 0.072273254394531264 0.21469116210937503 0.0018234252929687502 0.00022125244140625003 0.11132049560546876 0.050933837890625007 0.42490386962890631 0.049362182617187507 1.0000000180025095e-35 0.013572692871093752
decision_type=2 2 2 2 2 2 2 2 2 2 2 2 2 2 2 2 2 2 2 2 2 2 2 2 2 2 2 2 2 2
left_child=2 16 3 4 5 6 7 8 -1 28 18 13 -13 17 24 -16 22 23 -3 27 25 -7 -2 -6 -15 -8 29 -4 -5 -27
right_child=1 10 19 9 11 21 20 -9 -10 -11 -12 12 -14 14 15 -17 -18 -19 -20 -21 -22 -23 -24 -25 -26 26 -28 -29 -30 -31
leaf_value=-0.076874981237805867 -0.0099000056403541585 0.14287003739710608 -0.080552001355675543 -0.0088951318373688259 -0.03666854477864169 -0.079297781940644296 0.13840819110279975 0.10815167018003664 0.13613693707526311 0.069832558338916495 -0.034843844371648287 -0.074995851897607643 0.13613108463284582 0.14246314233683324 -0.058211696278209463 0.11676163564669889 -0.064675062921882187 -0.085396139690347955 -0.021695426684977547 0.048469636379721015 -0.052365156530726722 0.068802256748917254 0.13541165652757503 0.1364765168584843 0.022164703978902217 0.049341979321138069 0.14659485800359887 0.047359476148514455 -0.086048202091770248 -0.093277674274870978
leaf_weight=42.666561976075172 9.7416829168796557 108.71878209710121 147.69318805634975 8.4933527261018735 4.6838798522949237 77.441940888762474 23.515488773584366 10.482723280787466 6.5946996808052054 10.570229262113569 6.9922975003719321 19.423658341169361 5.8541651219129553 42.195245280861855 15.380346462130548 12.939787268638609 20.630895465612411 10.143391117453573 4.7165918797254553 7.575093448162078 4.7386686354875556 4.3577665388584128 7.3688434660434714 6.8862604945898056 5.7676693201065055 4.5480673909187299 6.6400721967220298 4.0385994762182227 72.090186223387718 4.2349302470684052
leaf_count=223 40 333 793 39 20 407 80 35 20 42 30 96 19 133 69 43 96 48 20 29 23 15 24 23 26 20 20 18 395 21
internal_value=0 0.0932785 -0.0253377 -0.00706653 0.00880565 -0.0177099 0.0247618 -0.0208972 -0.0483587 -0.0607834 0.126106 0.0486456 -0.0261003 0.067926 0.0885473 0.0217356 -0.0114707 -0.00451998 0.136027 -0.0711743 0.0872167 -0.071408 0.0526801 0.0663831 0.127997 0.104203 0.052051 -0.0771474 -0.0779164 -0.0194255
internal_weight=0 158.169 558.956 399.649 308.495 185.221 103.421 59.744 49.2613 91.1538 120.428 123.274 25.2778 97.9966 76.283 28.3201 37.7414 21.7135 113.435 159.307 43.6772 81.7997 17.1105 11.5701 47.9629 38.9386 15.4231 151.732 80.5835 8.783
internal_count=3200 543 2657 1817 1341 864 442 278 243 476 383 477 115 362 271 112 160 91 353 840 164 422 64 43 159 141 61 811 434 41
is_linear=0
shrinkage=0.1


Tree=18
num_leaves=31
num_cat=0
split_feature=16 18 320 766 567 23 270 20 18 30 130 21 296 303 20 23 28 20 10 18 364 344 18 24 671 333 392 373 493 388
split_gain=492.903 79.4005 32.3799 24.2347 23.6474 17.6158 17.0019 16.9135 14.631 12.1341 11.4802 11.3253 5.64907 4.67269 4.20337 4.04144 4.00122 9.91775 3.73836 2.60051 2.11443 1.42103 1.13912 1.10515 0.945151 0.856922 0.429026 0.612237 0.304332 0.271633
threshold=0.044540405273437507 0.35594177246093756 0.0020370483398437504 0.096099853515625014 3.0517578125000007e-05 1.0000000180025095e-35 0.00084686279296875011 0.11240386962890626 8.3923339843750014e-05 0.13240814208984378 1.0000000180025095e-35 0.00022125244140625003 0.021675109863281253 0.0029220581054687504 0.096778869628906264 0.077819824218750014 0.029975891113281253 0.00083160400390625011 0.022460937500000003 0.32863616943359381 1.0000000180025095e-35 0.0011825561523437502 0.43627929687500006 0.038314819335937507 0.080368041992187514 0.0013961791992187502 0.048995971679687507 0.0031967163085937504 0.015785217285156253 0.060539245605468757
decision_type=2 2 2 2 2 2 2 2 2 2 2 2 2 2 2 2 2 2 2 2 2 2 2 2 2 2 2 2 2 2
left_child=1 3 4 5 13 7 8 20 9 -5 12 -12 16 14 23 -10 18 -18 19 24 -1 -4 -3 25 26 28 29 -28 -2 -7
right_child=2 22 21 6 -6 10 -8 -9 15 -11 11 -13 -14 -15 -16 -17 17 -19 -20 -21 -22 -23 -24 -25 -26 -27 27 -29 -30 -31
leaf_value=-0.010501516108519893 0.14210474719277397 0.10015565843984398 -0.097334554366460713 -0.084605216619892606 -0.068117083778050563 -0.089166170481795412 -0.087484602564003811 0.14302898056590296 0.069820810869725455 0.078979952222618097 -0.074864824575008024 0.13149998027702445 0.042901266871763911 0.048734454311483537 0.072335136579223122 0.18931874056664427 -0.093784052973313936 0.074978720832854132 0.016254452200702551 -0.01504329208156073 -0.091093302737334833 -0.020737322091635382 0.14761485193253485 0.098207730220666589 -0.036398361788566681 0.10413665711275613 -0.035243376945857545 -0.089777692898025827 0.12024063697180053 -0.061360228460994565
leaf_weight=6.5759935975074786 179.10175177454948 8.1702375113964099 4.8778479993343336 9.8428715616464668 6.0131469070911399 336.95962791144848 13.972842335700987 6.9241449087858191 5.1821532249450666 8.4076097607612592 5.6248027533292753 5.0442491620779037 3.5599795728921881 6.3933670222759238 10.021332293748854 6.2358546108007431 9.7173999547958356 5.4270395487546912 3.555701255798339 4.9813952445983878 6.447104886174202 4.8107150495052338 13.274314880371092 6.5149394273757926 3.5406301766633979 6.4091917872428885 3.6552358716726285 4.7130190134048462 6.6008937358856192 3.5502569675445548
leaf_count=27 540 25 22 47 25 1885 67 22 20 36 28 20 16 22 31 21 47 20 17 23 34 20 40 21 18 20 20 26 20 20
internal_value=0 -0.0584978 0.119633 -0.067381 0.127475 -0.074917 0.0034658 0.0167445 0.0463003 -0.009245 -0.0796012 0.0227029 -0.0824761 0.132945 0.135525 0.135084 -0.0836629 -0.0333076 -0.0857756 -0.0867907 -0.0503986 -0.0593013 0.129533 0.138713 -0.0878048 0.140087 -0.0883265 -0.0659572 0.141328 -0.0888763
internal_weight=0 475.362 230.743 453.918 221.055 410.277 43.6413 19.9472 29.6685 18.2505 390.329 10.6691 379.66 215.041 208.648 11.418 376.1 15.1444 360.956 357.4 13.0231 9.68856 21.4446 198.627 352.419 192.112 348.878 8.36825 185.703 340.51
internal_count=3200 2479 721 2414 679 2223 191 83 124 83 2140 48 2092 654 632 41 2076 67 2009 1992 61 42 65 601 1969 580 1951 46 560 1905
is_linear=0
shrinkage=0.1


Tree=19
num_leaves=31
num_cat=0
split_feature=25 28 176 766 26 734 301 24 296 25 550 21 329 25 333 31 355 33 27 381 348 28 120 687 23 15 767 426 713 388
split_gain=521.962 89.3076 51.5852 23.6373 21.8137 21.7691 13.0585 12.2014 16.9499 6.87489 5.13391 4.30328 4.04001 4.50764 3.50258 3.13586 2.93763 1.80751 1.16105 0.844381 0.421654 0.370595 0.55454 0.363962 0.238274 0.179539 0.163124 0.116798 0.0755372 0.0521223
threshold=0.038696289062500007 0.010864257812500002 1.0000000180025095e-35 0.038200378417968757 0.0039443969726562509 0.0056533813476562509 0.0024337768554687504 0.46218109130859381 1.0000000180025095e-35 0.29756164550781256 0.00025177001953125005 0.19038391113281253 0.011688232421875002 0.0047988891601562509 0.0065994262695312509 0.010826110839843752 0.044624328613281257 0.00066375732421875011 1.0000000180025095e-35 0.027656555175781253 1.0000000180025095e-35 0.024253845214843753 1.0000000180025095e-35 0.024597167968750003 0.48497772216796881 0.012039184570312502 0.00075531005859375011 0.031181335449218753 0.012878417968750002 2.2888183593750003e-05
decision_type=2 2 2 2 2 2 2 2 2 2 2 2 2 2 2 2 2 2 2 2 2 2 2 2 2 2 2 2 2 2
left_child=2 3 10 4 -2 9 7 11 -9 15 12 14 16 -14 17 19 21 18 -6 -3 -20 -1 -23 24 25 26 27 28 29 -22
right_child=1 5 -4 -5 6 -7 -8 8 -10 -11 -12 -13 13 -15 -16 -17 -18 -19 20 -21 23 22 -24 -25 -26 -27 -28 -29 -30 -31
leaf_value=-0.089376794600389275 -0.09240467122229841 -0.092382351213406003 0.141978873833705 -0.091371238416566983 0.10029039922283021 0.1427771849155757 -0.039006538037213455 -0.067561742497684624 0.12514186790893647 0.066888759604244896 0.041628904163847839 0.049693924937498503 -0.091622745852432907 0.048887608176109626 0.064333296075432214 -0.0023890471070366587 -0.02268536620403069 0.087691661098988655 0.11796823350832447 -0.041278477524266131 0.147229141042694 -0.091222076388425069 -0.039464023159300449 0.11792508448792721 0.12516997835525484 0.15586813055635218 0.15767238812318732 0.12864454527624522 0.13169358788845295 0.14190864413853774
leaf_weight=347.96678233146667 4.7373408228158942 27.480202525854114 10.296560674905775 5.3842165023088446 7.3799737691879264 6.0309830754995337 4.817314237356185 7.4447596669197109 11.797672241926191 3.805709406733512 3.1797033548355094 5.9898249804973593 4.497698560357092 4.6369823515415192 6.7071001231670371 5.1867736279964438 6.8335610926151267 7.0111948251724234 7.8927479386329642 3.6643115878105155 21.270140260457993 4.6314364671707136 3.7429553270339966 6.3292070031166068 7.8070198893547049 10.250013589859007 6.6105940937995902 6.6244853734970084 6.5862209796905509 137.0632728934288
leaf_count=1955 24 141 31 28 23 21 21 36 36 13 11 20 23 19 22 23 34 22 24 18 64 24 19 20 24 31 20 20 20 413
internal_value=0 0.0942188 -0.078843 0.116068 0.120262 -0.0343677 0.124114 0.127174 0.0505862 -0.0609855 -0.0848984 0.133379 -0.085979 -0.0202963 0.135544 -0.0743804 -0.087631 0.137668 0.139277 -0.0863697 0.140644 -0.0888765 -0.0680887 0.141528 0.142289 0.142998 0.142258 0.141664 0.142187 0.142623
internal_weight=0 317.871 385.786 271.703 266.319 46.168 261.582 256.764 19.2424 40.137 375.489 237.522 372.309 9.13468 231.532 36.3313 363.175 224.825 217.814 31.1445 210.434 356.341 8.37439 202.541 196.212 188.405 178.155 171.544 164.92 158.333
internal_count=3200 1084 2116 868 840 216 816 795 72 195 2085 723 2074 42 703 182 2032 681 659 159 636 1998 43 612 592 568 537 517 497 477
is_linear=0
shrinkage=0.1


Tree=20
num_leaves=31
num_cat=0
split_feature=21 26 31 19 22 20 19 270 25 759 296 767 298 19 22 296 298 265 266 309 294 767 348 340 347 19 767 331 694 300
split_gain=196.53 108.876 78.2876 24.847 24.1524 23.1128 21.0542 18.8683 17.1808 16.761 15.0336 13.0895 11.4112 11.3526 11.0227 18.0926 7.6324 7.28958 6.50694 5.78295 5.1869 4.98186 4.34116 3.65647 3.08579 3.91357 3.07011 2.92515 2.15145 1.85611
threshold=0.072486877441406264 0.011947631835937502 0.00066375732421875011 0.52679443359375011 0.41104888916015631 0.12578582763671878 0.22257232666015628 0.00069427490234375011 0.049514770507812507 0.0030441284179687504 0.00064849853515625011 0.66108703613281261 0.0057067871093750009 0.00017547607421875003 0.047607421875000007 0.00054168701171875011 0.00063323974609375011 0.00035858154296875005 0.0010604858398437502 0.00054168701171875011 0.024879455566406253 0.63917541503906261 0.0078582763671875017 1.0000000180025095e-35 0.00023651123046875003 0.039398193359375007 0.33623504638671881 0.0057220458984375009 0.084419250488281264 0.0022506713867187504
decision_type=2 2 2 2 2 2 2 2 2 2 2 2 2 2 2 2 2 2 2 2 2 2 2 2 2 2 2 2 2 2
left_child=2 3 5 4 8 11 7 21 14 10 13 28 18 17 15 23 -7 19 22 -4 27 24 -12 -2 25 -3 29 -14 -1 -16
right_child=1 6 9 -5 -6 16 -8 -9 -10 -11 12 -13 20 -15 26 -17 -18 -19 -20 -21 -22 -23 -24 -25 -26 -27 -28 -29 -30 -31
leaf_value=-0.085085078071158046 0.031123675383334128 0.048045909559390962 0.11109599535328546 -0.08050181662377838 -0.076540138638446498 -0.029959105712182434 0.11203621284373644 0.079000321524136941 -0.072358828344877738 -0.077937172210329378 -0.054074814318360503 0.12079389757640024 0.15473614620698606 -0.059004141825850724 0.12805586299435845 0.14675703865400391 0.13597199547804395 0.14511084130242802 -0.09452238499959803 -0.013852422813801127 -0.0093307883379539179 0.040380791995347158 0.062580965073283312 -0.087015133606513265 -0.087069117045297142 -0.090133391403786164 0.058501378263257957 0.053889385305323105 -0.0017446456566214043 0.079675382604270484
leaf_weight=258.00467277318239 4.2688432335853594 4.0857539027929288 8.1107061058282834 7.5687409341335288 7.1629536598920813 4.8749198913574201 8.6062348186969739 9.4793468266725522 5.0216722935438147 12.635442420840262 5.9279743432998675 3.1560842096805564 5.7934365123510378 4.606663540005683 161.62531143426895 9.5105890333652479 6.4263843148946762 21.362577438354492 11.650087162852286 6.8178288489580146 6.1109821796417227 3.736295834183692 6.906755119562149 6.7821916341781616 54.585171923041344 4.1130681931972504 7.0860299766063681 5.7120727747678757 3.135197088122367 8.3389673084020597
leaf_count=1597 18 20 26 38 41 21 27 35 26 68 26 10 20 21 499 30 20 65 56 26 23 13 24 32 308 23 23 20 17 27
internal_value=0 0.0600402 -0.0485979 0.0975021 0.103924 -0.0756496 -0.0362049 -0.0529918 0.110303 0.0293588 0.0456932 -0.081638 0.00374661 0.0888741 0.114945 0.0456411 0.0643961 0.107645 -0.0404135 0.0540323 0.0651239 -0.0718011 0.00870118 -0.0413799 -0.0784771 -0.0212739 0.122993 0.104669 -0.0840845 0.125682
internal_weight=0 301.971 371.232 217.365 209.797 275.597 84.6059 75.9996 202.634 95.6345 82.9991 264.296 42.1013 40.8978 197.612 20.5616 11.3013 36.2911 24.4848 14.9285 17.6165 66.5203 12.8347 11.051 62.784 8.19882 177.05 11.5055 261.14 169.964
internal_count=3200 1160 2040 734 696 1665 426 399 655 375 307 1624 169 138 629 80 41 117 106 52 63 364 50 50 351 43 549 40 1614 526
is_linear=0
shrinkage=0.1


Tree=21
num_leaves=31
num_cat=0
split_feature=301 347 15 22 338 17 28 280 19 26 25 26 315 32 331 317 385 22 19 30 766 279 344 27 19 351 505 721 264 31
split_gain=139.555 48.361 40.1399 26.0744 26.7886 29.232 26.4902 34.1811 26.7128 17.4029 16.082 33.1989 13.1927 12.4455 12.1158 10.8848 14.6529 10.8717 10.553 9.46501 9.4577 8.47545 8.17326 7.50729 6.53943 22.0893 5.9426 4.39764 4.18901 4.11323
threshold=0.0018539428710937502 0.00051116943359375011 3.8146972656250007e-05 0.44797515869140631 0.0047836303710937509 0.32865905761718756 0.0013122558593750002 3.8146972656250007e-05 0.52679443359375011 0.11390686035156251 0.44603729248046881 0.11390686035156251 0.0013504028320312502 0.013122558593750002 0.00037384033203125005 0.0020828247070312504 0.00028228759765625005 0.018241882324218753 9.9182128906250014e-05 0.0084609985351562517 0.010932922363281252 8.3923339843750014e-05 0.027427673339843753 0.067070007324218764 0.36696624755859381 0.00031280517578125005 0.049362182617187507 6.8664550781250014e-05 0.00080108642578125011 0.0047149658203125009
decision_type=2 2 2 2 2 2 2 2 2 2 2 2 2 2 2 2 2 2 2 2 2 2 2 2 2 2 2 2 2 2
left_child=2 18 3 4 5 6 8 9 10 14 12 -12 24 29 -8 26 -17 21 20 27 -2 -3 23 28 -1 -26 -4 -6 -21 -9
right_child=1 17 15 -5 19 -7 7 13 -10 -11 11 -13 -14 -15 -16 16 -18 -19 -20 22 -22 -23 -24 -25 25 -27 -28 -29 -30 -31
leaf_value=-0.078244250935214477 0.092520403606822371 -0.074315875449556187 -0.078342690730286449 0.13168935190174166 0.13859616028271207 0.10857918326393701 -0.011080374856347303 -0.073470473333258263 0.10188055343176992 -0.055017618857502164 0.15113622736454291 -0.088357950458572435 0.056368613212526564 0.10535014592177053 0.13066784795168307 -0.081007166772144215 0.14357378394316095 0.12928022863302327 -0.078132955305763585 -0.06040896532148398 -0.067730944147735214 0.091970485612851233 -0.050511934581358157 0.13401872773255244 -0.089477506351163541 0.18641718569356094 0.044216799114546346 0.035362347328559661 0.066802540718825562 0.015582013012462781
leaf_weight=155.20904855430126 10.502961307764055 4.7238443642854682 132.67837473750114 13.354654282331465 14.877474799752237 16.53516086935997 7.4418569505214682 37.088472664356232 11.312725722789763 8.3753127902746183 10.739544093608858 12.55406506359577 8.3519588112831098 5.0200383812189093 31.784299522638321 6.0962262153625471 5.5502380728721619 100.94336885213852 16.045199036598206 5.0420696288347298 5.6715447008609763 8.7291911095380765 10.244700416922567 7.9642226547002783 9.6351674497127515 4.1527226418256751 4.0778307616710654 5.7102388292551032 5.3196264505386353 6.0299758166074744
leaf_count=891 35 22 782 41 48 54 32 204 36 46 33 74 34 17 103 28 19 314 82 22 23 31 47 27 54 17 18 23 20 23
internal_value=0 0.0875463 -0.0225725 -0.00560722 -0.0105178 -0.0209473 -0.0279079 0.0157494 -0.0476279 0.0758367 -0.0560576 0.0220611 -0.066318 -0.0436675 0.103776 -0.0667848 0.0260191 0.118026 -0.0206724 0.0582717 0.0363287 0.0335814 0.0210235 0.0610138 -0.0723812 -0.00638182 -0.0746882 0.109963 0.00490058 -0.0610168
internal_weight=0 146.616 535.146 386.743 373.389 324.23 307.695 95.74 211.955 47.6015 200.643 23.2936 177.349 48.1385 39.2262 148.403 11.6465 114.396 32.2197 49.1583 16.1745 13.453 28.5706 18.3259 168.997 13.7879 136.756 20.5877 10.3617 43.1184
internal_count=3200 507 2693 1846 1805 1618 1564 425 1139 181 1103 107 996 244 135 847 47 367 140 187 58 53 116 69 962 71 800 71 42 227
is_linear=0
shrinkage=0.1


Tree=22
num_leaves=31
num_cat=0
split_feature=16 18 316 28 19 559 7 19 766 23 17 325 298 304 28 20 310 340 20 400 390 382 319 16 359 585 22 20 20 494
split_gain=398.966 66.5171 27.3184 22.0768 20.3374 20.0842 17.0213 13.3249 11.285 10.7775 12.0261 7.29015 6.11386 5.28345 5.02587 4.7166 4.41439 3.59506 8.21955 6.98829 3.41859 2.84995 1.31957 1.08699 0.622764 0.522137 0.404909 0.341375 0.507771 0.293941
threshold=0.044540405273437507 0.35594177246093756 0.0019607543945312504 0.022293090820312503 0.00017547607421875003 1.0000000180025095e-35 0.010246276855468752 0.12088775634765626 0.26179504394531256 1.0000000180025095e-35 0.34895324707031256 0.0092926025390625017 0.034927368164062507 8.3923339843750014e-05 0.010734558105468752 0.096778869628906264 0.0020217895507812504 0.00019073486328125003 0.20734405517578128 0.00066375732421875011 0.0038528442382812504 0.00041961669921875005 0.0036544799804687504 0.00023651123046875003 0.039741516113281257 0.00056457519531250011 0.043739318847656257 0.061210632324218757 0.076210021972656264 0.028228759765625003
decision_type=2 2 2 2 2 2 2 2 2 2 2 2 2 2 2 2 2 2 2 2 2 2 2 2 2 2 2 2 2 2
left_child=1 3 5 6 11 15 7 12 9 10 -9 13 29 -5 17 16 24 18 19 -11 -6 -4 -15 -3 25 26 27 -2 -29 -1
right_child=2 23 21 4 20 -7 -8 8 -10 14 -12 -13 -14 22 -16 -17 -18 -19 -20 -21 -22 -23 -24 -25 -26 -27 -28 28 -30 -31
leaf_value=-0.08739633397307478 0.12917291103381931 0.13201301378861219 0.0058783338648425417 0.023995493298447787 0.14564467493258301 -0.058187554510755773 0.14583325389889656 0.13602002502589527 0.13698717794874957 -0.062135997108919573 -0.073427477957245468 0.080132198829673526 0.047786479205281056 -0.086324148534177109 0.045804999367162355 0.055410375880672248 0.038513591637687035 -0.089624933055238623 -0.081414746402000207 0.12393708425865944 0.043330057699745919 -0.098022881527169592 -0.025279723496167514 0.082984878647195115 0.096883309445634391 0.099710849156039866 0.14851583249722525 0.092959088281097169 0.12820061179389519 -0.057189973210367284
leaf_weight=277.75433526188135 152.48656365275383 14.666388392448427 4.9837890267372114 6.4929455667734137 7.7912782281637174 6.4723715037107459 3.5141990184783927 6.2236693501472455 3.4782508909702292 3.620422765612604 4.8995726555585861 4.4023041278123847 3.4037288278341284 22.329076603055004 4.0023296326398841 10.515795424580572 5.8442811369895926 36.719295397400856 16.159979924559593 4.5613220781087875 5.6221631467342377 5.613411158323288 4.20855988562107 6.5378533899784079 6.7449064850807181 6.3831873834133139 9.859841972589491 6.7594567537307766 10.346516758203505 3.2593385726213446
leaf_count=1707 471 45 20 28 27 27 13 19 11 21 25 18 15 121 18 33 21 210 99 22 20 25 20 20 21 20 30 21 32 20
internal_value=0 -0.0558947 0.10759 -0.0646508 -0.00289097 0.115301 -0.0731935 -0.0753076 -0.0391601 -0.047202 0.0437625 -0.0407492 -0.0854324 -0.0568603 -0.0627533 0.120675 0.124134 -0.0698689 -0.0400671 0.0415997 0.10276 -0.0491589 -0.0766432 0.116896 0.126732 0.127816 0.128816 0.12767 0.114275 -0.087046
internal_weight=0 439.647 226.01 418.443 50.8463 215.413 367.596 364.082 79.6648 76.1866 11.1232 37.4329 284.417 33.0306 65.0633 208.941 198.425 61.061 24.3417 8.18174 13.4134 10.5972 26.5376 21.2042 192.58 185.836 179.452 169.593 17.106 281.014
internal_count=3200 2479 721 2414 234 676 2180 2167 425 414 44 187 1742 169 370 649 616 352 142 43 47 45 141 65 595 574 554 524 53 1727
is_linear=0
shrinkage=0.1


Tree=23
num_leaves=31
num_cat=0
split_feature=25 28 176 766 747 26 646 592 705 720 671 553 391 329 24 355 649 21 22 714 28 764 24 24 25 330 328 7 21 340
split_gain=431.691 71.1466 44.1658 19.2276 18.05 17.6664 10.3501 13.3369 41.7892 9.73544 6.52731 4.94378 4.26971 3.87805 4.14356 2.89776 1.75994 0.898415 2.43395 0.870944 0.392996 0.550035 0.224461 0.118044 0.0950862 0.0769237 0.0709542 0.0573439 0.0333745 0.0296746
threshold=0.038696289062500007 0.010864257812500002 1.0000000180025095e-35 0.038200378417968757 0.0010375976562500002 0.0039443969726562509 9.9182128906250014e-05 2.2888183593750003e-05 0.0018997192382812502 0.00023651123046875003 3.8146972656250007e-05 0.0015335083007812502 0.00054168701171875011 0.011688232421875002 0.00089263916015625011 0.044624328613281257 0.035110473632812507 1.0000000180025095e-35 0.00070953369140625011 0.019912719726562503 0.024253845214843753 0.00014495849609375003 0.11190795898437501 0.46218109130859381 0.059288024902343757 0.00045013427734375005 0.0022659301757812504 0.0024261474609375004 0.073371887207031264 0.0032577514648437504
decision_type=2 2 2 2 2 2 2 2 2 2 2 2 2 2 2 2 2 2 2 2 2 2 2 2 2 2 2 2 2 2
left_child=2 3 11 5 10 -2 7 8 12 -10 17 13 -7 15 -15 20 22 18 -3 26 27 -22 -8 28 -9 -14 -11 -1 29 -24
right_child=1 4 -4 -5 -6 6 16 24 9 19 -12 -13 25 14 -16 -17 -18 -19 -20 -21 21 -23 23 -25 -26 -27 -28 -29 -30 -31
leaf_value=-0.087466035100779285 -0.090590826383355305 -0.090751549247688121 0.12834822727480963 -0.089727780755428962 0.093339320400320946 -0.005124332785547016 0.14804301265565231 0.14338606437660897 -0.01925378923201598 0.13246791888761919 0.068670865285119703 0.04135207163822089 -0.10838227755502657 -0.090467735371456082 0.046131947672013673 -0.020162444533767278 0.075112199129227286 -0.090333051227722838 0.01237687068861045 0.093816497002738322 -0.036480550321593377 -0.089737246480819918 0.12816571688454548 0.14269548405311583 0.13068370057288345 -0.091686414256302376 0.14301570995369209 -0.10030943044630625 0.13510800148340288 0.13509000102038091
leaf_weight=311.73504880070686 4.3857775777578345 6.4399683028459567 10.202446490526198 4.9911003708839408 9.062950596213339 7.4134630262851742 6.8982497453689566 7.2145908772945395 4.9997934252023688 24.821257203817368 3.308696746826171 3.1777769178152075 7.2962886840105039 4.2347710281610471 4.6688726395368576 6.6072917133569709 5.9843966066837302 21.739592373371124 3.5500856637954712 6.0063041746616355 3.6373761296272269 4.1540302485227585 119.32856327295303 6.5309132635593405 32.174895495176315 4.4381640404462814 8.5828361511230451 3.515586405992507 8.2029558718204481 6.5277770161628714
leaf_count=1939 24 35 31 28 30 26 21 22 21 76 14 11 28 23 19 34 20 120 17 20 20 23 369 20 99 23 26 16 25 20
